<?xml version="1.0"?>
<MethodSetup Method="Category::BDT">
  <GeneralInfo>
    <Info name="TMVA Release" value="4.2.1 [262657]"/>
    <Info name="ROOT Release" value="6.12/07 [396295]"/>
    <Info name="Creator" value="youying"/>
    <Info name="Date" value="Sat Oct 17 15:46:11 2020"/>
    <Info name="Host" value="Linux cmsbuild13.cern.ch 3.10.0-1062.4.1.el7.x86_64 #1 SMP Fri Oct 18 17:15:30 UTC 2019 x86_64 x86_64 x86_64 GNU/Linux"/>
    <Info name="Dir" value="/wk_cms2/youying/VHAnalysis/vhmet_an/CMSSW_10_2_20/src/HggAnalyzer/MVATraining"/>
    <Info name="Training events" value="146740"/>
    <Info name="TrainingTime" value="1.01572727e+02"/>
    <Info name="AnalysisType" value="Classification"/>
  </GeneralInfo>
  <Options>
    <Option name="V" modified="No">False</Option>
    <Option name="VerbosityLevel" modified="No">Default</Option>
    <Option name="VarTransform" modified="No">None</Option>
    <Option name="H" modified="No">False</Option>
    <Option name="CreateMVAPdfs" modified="No">False</Option>
    <Option name="IgnoreNegWeightsInTraining" modified="No">False</Option>
  </Options>
  <Variables NVar="22">
    <Variable VarIndex="0" Expression="pho1_eta" Label="pho1_eta" Title="pho1_eta" Unit="" Internal="pho1_eta" Type="F" Min="-2.53001308e+00" Max="2.53803563e+00"/>
    <Variable VarIndex="1" Expression="pho2_eta" Label="pho2_eta" Title="pho2_eta" Unit="" Internal="pho2_eta" Type="F" Min="-2.52172089e+00" Max="2.52821326e+00"/>
    <Variable VarIndex="2" Expression="pho1_ptoM" Label="pho1_ptoM" Title="pho1_ptoM" Unit="" Internal="pho1_ptoM" Type="F" Min="1.98106170e-01" Max="1.13631325e+01"/>
    <Variable VarIndex="3" Expression="pho2_ptoM" Label="pho2_ptoM" Title="pho2_ptoM" Unit="" Internal="pho2_ptoM" Type="F" Min="1.39611334e-01" Max="4.13898993e+00"/>
    <Variable VarIndex="4" Expression="min_phoId" Label="min_phoId" Title="min_phoId" Unit="" Internal="min_phoId" Type="F" Min="-3.99958014e-01" Max="9.95415866e-01"/>
    <Variable VarIndex="5" Expression="max_phoId" Label="max_phoId" Title="max_phoId" Unit="" Internal="max_phoId" Type="F" Min="-3.91257972e-01" Max="9.98566628e-01"/>
    <Variable VarIndex="6" Expression="pho1_psv" Label="pho1_psv" Title="pho1_psv" Unit="" Internal="pho1_psv" Type="F" Min="0.00000000e+00" Max="1.00000000e+00"/>
    <Variable VarIndex="7" Expression="pho2_psv" Label="pho2_psv" Title="pho2_psv" Unit="" Internal="pho2_psv" Type="F" Min="0.00000000e+00" Max="1.00000000e+00"/>
    <Variable VarIndex="8" Expression="cosdphi_dipho" Label="cosdphi_dipho" Title="cosdphi_dipho" Unit="" Internal="cosdphi_dipho" Type="F" Min="-1.00000000e+00" Max="1.00000000e+00"/>
    <Variable VarIndex="9" Expression="lep_pt" Label="lep_pt" Title="lep_pt" Unit="" Internal="lep_pt" Type="F" Min="1.50005674e+01" Max="9.61282593e+02"/>
    <Variable VarIndex="10" Expression="lep_eta" Label="lep_eta" Title="lep_eta" Unit="" Internal="lep_eta" Type="F" Min="-2.49932075e+00" Max="2.49968266e+00"/>
    <Variable VarIndex="11" Expression="dr_pho1_lep" Label="dr_pho1_lep" Title="dr_pho1_lep" Unit="" Internal="dr_pho1_lep" Type="F" Min="2.00060308e-01" Max="5.55122089e+00"/>
    <Variable VarIndex="12" Expression="dr_pho2_lep" Label="dr_pho2_lep" Title="dr_pho2_lep" Unit="" Internal="dr_pho2_lep" Type="F" Min="2.00178444e-01" Max="5.51123857e+00"/>
    <Variable VarIndex="13" Expression="met" Label="met" Title="met" Unit="" Internal="met" Type="F" Min="9.40553099e-02" Max="1.10445752e+03"/>
    <Variable VarIndex="14" Expression="met_sumEt" Label="met_sumEt" Title="met_sumEt" Unit="" Internal="met_sumEt" Type="F" Min="2.42680374e+02" Max="5.27558838e+03"/>
    <Variable VarIndex="15" Expression="lnu_mt" Label="lnu_mt" Title="lnu_mt" Unit="" Internal="lnu_mt" Type="F" Min="1.41515152e-03" Max="1.03390161e+03"/>
    <Variable VarIndex="16" Expression="dphi_dipho_lnu" Label="dphi_dipho_lnu" Title="dphi_dipho_lnu" Unit="" Internal="dphi_dipho_lnu" Type="F" Min="1.26366314e-04" Max="3.14158797e+00"/>
    <Variable VarIndex="17" Expression="pt_balance" Label="pt_balance" Title="pt_balance" Unit="" Internal="pt_balance" Type="F" Min="-2.06518478e+02" Max="9.97534633e-01"/>
    <Variable VarIndex="18" Expression="njet" Label="njet" Title="njet" Unit="" Internal="njet" Type="F" Min="0.00000000e+00" Max="1.40000000e+01"/>
    <Variable VarIndex="19" Expression="max_jet_pt" Label="max_jet_pt" Title="max_jet_pt" Unit="" Internal="max_jet_pt" Type="F" Min="-1.00000000e+00" Max="1.63359583e+03"/>
    <Variable VarIndex="20" Expression="max_jet_dCSV" Label="max_jet_dCSV" Title="max_jet_dCSV" Unit="" Internal="max_jet_dCSV" Type="F" Min="-2.00000000e+00" Max="9.99999881e-01"/>
    <Variable VarIndex="21" Expression="min_dphi_jet_lnu" Label="min_dphi_jet_lnu" Title="min_dphi_jet_lnu" Unit="" Internal="min_dphi_jet_lnu" Type="F" Min="1.21352596e-05" Max="4.00000000e+00"/>
  </Variables>
  <Spectators NSpec="1">
    <Spectator SpecIndex="0" Expression="leptonType" Label="leptonType" Title="leptonType" Unit="" Internal="leptonType" Type="F" Min="1.10000000e+01" Max="1.30000000e+01"/>
  </Spectators>
  <Classes NClass="2">
    <Class Name="Signal" Index="0"/>
    <Class Name="Background" Index="1"/>
  </Classes>
  <Transformations NTransformations="0"/>
  <MVAPdfs/>
  <Weights NSubMethods="2">
    <SubMethod Index="0" Method="BDT::electron" Cut="leptonType==11" Variables="pho1_eta:pho2_eta:pho1_ptoM:pho2_ptoM:min_phoId:max_phoId:pho1_psv:pho2_psv:cosdphi_dipho:lep_pt:lep_eta:dr_pho1_lep:dr_pho2_lep:met:met_sumEt:lnu_mt:dphi_dipho_lnu:pt_balance:njet:max_jet_pt:max_jet_dCSV:min_dphi_jet_lnu">
      <GeneralInfo>
        <Info name="TMVA Release" value="4.2.1 [262657]"/>
        <Info name="ROOT Release" value="6.12/07 [396295]"/>
        <Info name="Creator" value="youying"/>
        <Info name="Date" value="Sat Oct 17 15:46:11 2020"/>
        <Info name="Host" value="Linux cmsbuild13.cern.ch 3.10.0-1062.4.1.el7.x86_64 #1 SMP Fri Oct 18 17:15:30 UTC 2019 x86_64 x86_64 x86_64 GNU/Linux"/>
        <Info name="Dir" value="/wk_cms2/youying/VHAnalysis/vhmet_an/CMSSW_10_2_20/src/HggAnalyzer/MVATraining"/>
        <Info name="Training events" value="62778"/>
        <Info name="TrainingTime" value="3.72534330e+01"/>
        <Info name="AnalysisType" value="Classification"/>
      </GeneralInfo>
      <Options>
        <Option name="V" modified="Yes">False</Option>
        <Option name="VerbosityLevel" modified="No">Default</Option>
        <Option name="VarTransform" modified="No">None</Option>
        <Option name="H" modified="Yes">False</Option>
        <Option name="CreateMVAPdfs" modified="No">False</Option>
        <Option name="IgnoreNegWeightsInTraining" modified="No">False</Option>
        <Option name="NTrees" modified="Yes">500</Option>
        <Option name="MaxDepth" modified="Yes">5</Option>
        <Option name="MinNodeSize" modified="Yes">5%</Option>
        <Option name="nCuts" modified="Yes">20</Option>
        <Option name="BoostType" modified="Yes">AdaBoost</Option>
        <Option name="AdaBoostR2Loss" modified="No">quadratic</Option>
        <Option name="UseBaggedBoost" modified="Yes">True</Option>
        <Option name="Shrinkage" modified="No">1.000000e+00</Option>
        <Option name="AdaBoostBeta" modified="Yes">1.000000e-01</Option>
        <Option name="UseRandomisedTrees" modified="No">False</Option>
        <Option name="UseNvars" modified="No">5</Option>
        <Option name="UsePoissonNvars" modified="No">True</Option>
        <Option name="BaggedSampleFraction" modified="Yes">5.000000e-01</Option>
        <Option name="UseYesNoLeaf" modified="No">True</Option>
        <Option name="NegWeightTreatment" modified="No">inverseboostnegweights</Option>
        <Option name="Css" modified="No">1.000000e+00</Option>
        <Option name="Cts_sb" modified="No">1.000000e+00</Option>
        <Option name="Ctb_ss" modified="No">1.000000e+00</Option>
        <Option name="Cbb" modified="No">1.000000e+00</Option>
        <Option name="NodePurityLimit" modified="No">5.000000e-01</Option>
        <Option name="SeparationType" modified="Yes">giniindex</Option>
        <Option name="RegressionLossFunctionBDTG" modified="No">huber</Option>
        <Option name="HuberQuantile" modified="No">7.000000e-01</Option>
        <Option name="DoBoostMonitor" modified="No">False</Option>
        <Option name="UseFisherCuts" modified="No">False</Option>
        <Option name="MinLinCorrForFisher" modified="No">8.000000e-01</Option>
        <Option name="UseExclusiveVars" modified="No">False</Option>
        <Option name="DoPreselection" modified="No">False</Option>
        <Option name="SigToBkgFraction" modified="No">1.000000e+00</Option>
        <Option name="PruneMethod" modified="No">nopruning</Option>
        <Option name="PruneStrength" modified="No">0.000000e+00</Option>
        <Option name="PruningValFraction" modified="No">5.000000e-01</Option>
        <Option name="SkipNormalization" modified="No">False</Option>
        <Option name="nEventsMin" modified="No">0</Option>
        <Option name="UseBaggedGrad" modified="No">False</Option>
        <Option name="GradBaggingFraction" modified="No">5.000000e-01</Option>
        <Option name="UseNTrainEvents" modified="No">0</Option>
        <Option name="NNodesMax" modified="No">0</Option>
      </Options>
      <Variables NVar="22">
        <Variable VarIndex="0" Expression="pho1_eta" Label="pho1_eta" Title="pho1_eta" Unit="" Internal="pho1_eta" Type="F" Min="-2.53092360e+00" Max="2.52562618e+00"/>
        <Variable VarIndex="1" Expression="pho2_eta" Label="pho2_eta" Title="pho2_eta" Unit="" Internal="pho2_eta" Type="F" Min="-2.52358150e+00" Max="2.53034377e+00"/>
        <Variable VarIndex="2" Expression="pho1_ptoM" Label="pho1_ptoM" Title="pho1_ptoM" Unit="" Internal="pho1_ptoM" Type="F" Min="1.98106170e-01" Max="1.04910660e+01"/>
        <Variable VarIndex="3" Expression="pho2_ptoM" Label="pho2_ptoM" Title="pho2_ptoM" Unit="" Internal="pho2_ptoM" Type="F" Min="1.39611334e-01" Max="4.82228804e+00"/>
        <Variable VarIndex="4" Expression="min_phoId" Label="min_phoId" Title="min_phoId" Unit="" Internal="min_phoId" Type="F" Min="-3.99953812e-01" Max="9.96500552e-01"/>
        <Variable VarIndex="5" Expression="max_phoId" Label="max_phoId" Title="max_phoId" Unit="" Internal="max_phoId" Type="F" Min="-3.75128537e-01" Max="9.98367906e-01"/>
        <Variable VarIndex="6" Expression="pho1_psv" Label="pho1_psv" Title="pho1_psv" Unit="" Internal="pho1_psv" Type="F" Min="0.00000000e+00" Max="1.00000000e+00"/>
        <Variable VarIndex="7" Expression="pho2_psv" Label="pho2_psv" Title="pho2_psv" Unit="" Internal="pho2_psv" Type="F" Min="0.00000000e+00" Max="1.00000000e+00"/>
        <Variable VarIndex="8" Expression="cosdphi_dipho" Label="cosdphi_dipho" Title="cosdphi_dipho" Unit="" Internal="cosdphi_dipho" Type="F" Min="-1.00000000e+00" Max="1.00000000e+00"/>
        <Variable VarIndex="9" Expression="lep_pt" Label="lep_pt" Title="lep_pt" Unit="" Internal="lep_pt" Type="F" Min="1.50006475e+01" Max="7.94268066e+02"/>
        <Variable VarIndex="10" Expression="lep_eta" Label="lep_eta" Title="lep_eta" Unit="" Internal="lep_eta" Type="F" Min="-2.49933410e+00" Max="2.49998450e+00"/>
        <Variable VarIndex="11" Expression="dr_pho1_lep" Label="dr_pho1_lep" Title="dr_pho1_lep" Unit="" Internal="dr_pho1_lep" Type="F" Min="2.00297907e-01" Max="5.66300058e+00"/>
        <Variable VarIndex="12" Expression="dr_pho2_lep" Label="dr_pho2_lep" Title="dr_pho2_lep" Unit="" Internal="dr_pho2_lep" Type="F" Min="2.00127184e-01" Max="5.47131109e+00"/>
        <Variable VarIndex="13" Expression="met" Label="met" Title="met" Unit="" Internal="met" Type="F" Min="1.72753647e-01" Max="1.21116870e+03"/>
        <Variable VarIndex="14" Expression="met_sumEt" Label="met_sumEt" Title="met_sumEt" Unit="" Internal="met_sumEt" Type="F" Min="2.09607071e+02" Max="5.27558838e+03"/>
        <Variable VarIndex="15" Expression="lnu_mt" Label="lnu_mt" Title="lnu_mt" Unit="" Internal="lnu_mt" Type="F" Min="5.54316735e-04" Max="9.29476929e+02"/>
        <Variable VarIndex="16" Expression="dphi_dipho_lnu" Label="dphi_dipho_lnu" Title="dphi_dipho_lnu" Unit="" Internal="dphi_dipho_lnu" Type="F" Min="2.24484720e-05" Max="3.14156604e+00"/>
        <Variable VarIndex="17" Expression="pt_balance" Label="pt_balance" Title="pt_balance" Unit="" Internal="pt_balance" Type="F" Min="-2.27746262e+02" Max="9.97534633e-01"/>
        <Variable VarIndex="18" Expression="njet" Label="njet" Title="njet" Unit="" Internal="njet" Type="F" Min="0.00000000e+00" Max="1.30000000e+01"/>
        <Variable VarIndex="19" Expression="max_jet_pt" Label="max_jet_pt" Title="max_jet_pt" Unit="" Internal="max_jet_pt" Type="F" Min="-1.00000000e+00" Max="1.76797241e+03"/>
        <Variable VarIndex="20" Expression="max_jet_dCSV" Label="max_jet_dCSV" Title="max_jet_dCSV" Unit="" Internal="max_jet_dCSV" Type="F" Min="-2.00000000e+00" Max="9.99999940e-01"/>
        <Variable VarIndex="21" Expression="min_dphi_jet_lnu" Label="min_dphi_jet_lnu" Title="min_dphi_jet_lnu" Unit="" Internal="min_dphi_jet_lnu" Type="F" Min="1.21352596e-05" Max="4.00000000e+00"/>
      </Variables>
      <Classes NClass="2">
        <Class Name="Signal" Index="0"/>
        <Class Name="Background" Index="1"/>
      </Classes>
      <Transformations NTransformations="0"/>
      <MVAPdfs/>
      <Weights NTrees="500" AnalysisType="0">
        <BinaryTree type="DecisionTree" boostWeight="1.1641142216984368e-01" itree="0">
          <Node pos="s" depth="0" NCoef="0" IVar="6" Cut="4.7619048506021500e-02" cType="0" res="-9.9000000000000000e+01" rms="0.0000000000000000e+00" purity="5.1436722278594971e-01" nType="0">
            <Node pos="l" depth="1" NCoef="0" IVar="16" Cut="2.3935840129852295e+00" cType="0" res="-9.9000000000000000e+01" rms="0.0000000000000000e+00" purity="6.3816589117050171e-01" nType="0">
              <Node pos="l" depth="2" NCoef="0" IVar="8" Cut="-8.0952370166778564e-01" cType="0" res="-9.9000000000000000e+01" rms="0.0000000000000000e+00" purity="7.7879172563552856e-01" nType="0">
                <Node pos="l" depth="3" NCoef="0" IVar="-1" Cut="3.3128631114959717e-01" cType="0" res="-9.9000000000000000e+01" rms="0.0000000000000000e+00" purity="8.9542937278747559e-01" nType="1"/>
                <Node pos="r" depth="3" NCoef="0" IVar="15" Cut="5.5502750396728516e+01" cType="0" res="-9.9000000000000000e+01" rms="0.0000000000000000e+00" purity="5.6249552965164185e-01" nType="0">
                  <Node pos="l" depth="4" NCoef="0" IVar="-1" Cut="0.0000000000000000e+00" cType="1" res="-9.9000000000000000e+01" rms="0.0000000000000000e+00" purity="6.8676900863647461e-01" nType="1"/>
                  <Node pos="r" depth="4" NCoef="0" IVar="-1" Cut="0.0000000000000000e+00" cType="1" res="-9.9000000000000000e+01" rms="0.0000000000000000e+00" purity="4.4342577457427979e-01" nType="-1"/>
                </Node>
              </Node>
              <Node pos="r" depth="2" NCoef="0" IVar="15" Cut="7.2649703979492188e+01" cType="0" res="-9.9000000000000000e+01" rms="0.0000000000000000e+00" purity="4.0733394026756287e-01" nType="0">
                <Node pos="l" depth="3" NCoef="0" IVar="-1" Cut="0.0000000000000000e+00" cType="1" res="-9.9000000000000000e+01" rms="0.0000000000000000e+00" purity="5.7334095239639282e-01" nType="1"/>
                <Node pos="r" depth="3" NCoef="0" IVar="-1" Cut="3.7252467870712280e-01" cType="0" res="-9.9000000000000000e+01" rms="0.0000000000000000e+00" purity="3.3333945274353027e-01" nType="-1"/>
              </Node>
            </Node>
            <Node pos="r" depth="1" NCoef="0" IVar="-1" Cut="6.3827625274658203e+01" cType="0" res="-9.9000000000000000e+01" rms="0.0000000000000000e+00" purity="1.7126591503620148e-01" nType="-1"/>
          </Node>
        </BinaryTree>
        <BinaryTree type="DecisionTree" boostWeight="1.0019826993283881e-01" itree="1">
          <Node pos="s" depth="0" NCoef="0" IVar="6" Cut="4.7619048506021500e-02" cType="0" res="-9.9000000000000000e+01" rms="0.0000000000000000e+00" purity="5.0389826297760010e-01" nType="0">
            <Node pos="l" depth="1" NCoef="0" IVar="16" Cut="2.6928184032440186e+00" cType="0" res="-9.9000000000000000e+01" rms="0.0000000000000000e+00" purity="5.8698165416717529e-01" nType="0">
              <Node pos="l" depth="2" NCoef="0" IVar="8" Cut="-6.1904752254486084e-01" cType="0" res="-9.9000000000000000e+01" rms="0.0000000000000000e+00" purity="7.4531155824661255e-01" nType="0">
                <Node pos="l" depth="3" NCoef="0" IVar="-1" Cut="4.1635835170745850e-01" cType="0" res="-9.9000000000000000e+01" rms="0.0000000000000000e+00" purity="8.7240856885910034e-01" nType="1"/>
                <Node pos="r" depth="3" NCoef="0" IVar="21" Cut="3.0476219654083252e+00" cType="0" res="-9.9000000000000000e+01" rms="0.0000000000000000e+00" purity="5.7652157545089722e-01" nType="0">
                  <Node pos="l" depth="4" NCoef="0" IVar="-1" Cut="0.0000000000000000e+00" cType="1" res="-9.9000000000000000e+01" rms="0.0000000000000000e+00" purity="6.8282508850097656e-01" nType="1"/>
                  <Node pos="r" depth="4" NCoef="0" IVar="-1" Cut="0.0000000000000000e+00" cType="1" res="-9.9000000000000000e+01" rms="0.0000000000000000e+00" purity="4.3879836797714233e-01" nType="-1"/>
                </Node>
              </Node>
              <Node pos="r" depth="2" NCoef="0" IVar="4" Cut="3.3070030808448792e-01" cType="0" res="-9.9000000000000000e+01" rms="0.0000000000000000e+00" purity="4.3218058347702026e-01" nType="0">
                <Node pos="l" depth="3" NCoef="0" IVar="19" Cut="4.6179069519042969e+01" cType="1" res="-9.9000000000000000e+01" rms="0.0000000000000000e+00" purity="5.0035870075225830e-01" nType="0">
                  <Node pos="l" depth="4" NCoef="0" IVar="15" Cut="6.0656604766845703e+01" cType="0" res="-9.9000000000000000e+01" rms="0.0000000000000000e+00" purity="5.8472621440887451e-01" nType="0">
                    <Node pos="l" depth="5" NCoef="0" IVar="-1" Cut="0.0000000000000000e+00" cType="1" res="-9.9000000000000000e+01" rms="0.0000000000000000e+00" purity="7.5248229503631592e-01" nType="1"/>
                    <Node pos="r" depth="5" NCoef="0" IVar="-1" Cut="0.0000000000000000e+00" cType="1" res="-9.9000000000000000e+01" rms="0.0000000000000000e+00" purity="4.5506539940834045e-01" nType="-1"/>
                  </Node>
                  <Node pos="r" depth="4" NCoef="0" IVar="-1" Cut="6.3839864730834961e-01" cType="0" res="-9.9000000000000000e+01" rms="0.0000000000000000e+00" purity="3.8009002804756165e-01" nType="-1"/>
                </Node>
                <Node pos="r" depth="3" NCoef="0" IVar="-1" Cut="0.0000000000000000e+00" cType="1" res="-9.9000000000000000e+01" rms="0.0000000000000000e+00" purity="2.3953847587108612e-01" nType="-1"/>
              </Node>
            </Node>
            <Node pos="r" depth="1" NCoef="0" IVar="-1" Cut="-5.2380985021591187e-01" cType="0" res="-9.9000000000000000e+01" rms="0.0000000000000000e+00" purity="2.1137060225009918e-01" nType="-1"/>
          </Node>
        </BinaryTree>
        <BinaryTree type="DecisionTree" boostWeight="1.0069181468174815e-01" itree="2">
          <Node pos="s" depth="0" NCoef="0" IVar="6" Cut="4.7619048506021500e-02" cType="0" res="-9.9000000000000000e+01" rms="0.0000000000000000e+00" purity="4.8277321457862854e-01" nType="0">
            <Node pos="l" depth="1" NCoef="0" IVar="16" Cut="2.8423674106597900e+00" cType="0" res="-9.9000000000000000e+01" rms="0.0000000000000000e+00" purity="5.7830405235290527e-01" nType="0">
              <Node pos="l" depth="2" NCoef="0" IVar="-1" Cut="5.4106098175048828e+01" cType="0" res="-9.9000000000000000e+01" rms="0.0000000000000000e+00" purity="7.7438157796859741e-01" nType="1"/>
              <Node pos="r" depth="2" NCoef="0" IVar="3" Cut="2.6882970333099365e-01" cType="0" res="-9.9000000000000000e+01" rms="0.0000000000000000e+00" purity="4.6861219406127930e-01" nType="0">
                <Node pos="l" depth="3" NCoef="0" IVar="13" Cut="3.6802337646484375e+01" cType="0" res="-9.9000000000000000e+01" rms="0.0000000000000000e+00" purity="5.3960454463958740e-01" nType="0">
                  <Node pos="l" depth="4" NCoef="0" IVar="-1" Cut="1.5248922109603882e+00" cType="0" res="-9.9000000000000000e+01" rms="0.0000000000000000e+00" purity="6.4151394367218018e-01" nType="1"/>
                  <Node pos="r" depth="4" NCoef="0" IVar="9" Cut="4.2673477172851562e+01" cType="0" res="-9.9000000000000000e+01" rms="0.0000000000000000e+00" purity="4.0248206257820129e-01" nType="0">
                    <Node pos="l" depth="5" NCoef="0" IVar="-1" Cut="0.0000000000000000e+00" cType="1" res="-9.9000000000000000e+01" rms="0.0000000000000000e+00" purity="5.6451380252838135e-01" nType="1"/>
                    <Node pos="r" depth="5" NCoef="0" IVar="-1" Cut="0.0000000000000000e+00" cType="1" res="-9.9000000000000000e+01" rms="0.0000000000000000e+00" purity="3.1528180837631226e-01" nType="-1"/>
                  </Node>
                </Node>
                <Node pos="r" depth="3" NCoef="0" IVar="-1" Cut="5.2891659736633301e-01" cType="0" res="-9.9000000000000000e+01" rms="0.0000000000000000e+00" purity="2.4676240980625153e-01" nType="-1"/>
              </Node>
            </Node>
            <Node pos="r" depth="1" NCoef="0" IVar="-1" Cut="-5.2382177114486694e-01" cType="0" res="-9.9000000000000000e+01" rms="0.0000000000000000e+00" purity="1.8867436051368713e-01" nType="-1"/>
          </Node>
        </BinaryTree>
        <BinaryTree type="DecisionTree" boostWeight="1.0335761511622546e-01" itree="3">
          <Node pos="s" depth="0" NCoef="0" IVar="6" Cut="4.7619048506021500e-02" cType="0" res="-9.9000000000000000e+01" rms="0.0000000000000000e+00" purity="5.0468844175338745e-01" nType="0">
            <Node pos="l" depth="1" NCoef="0" IVar="16" Cut="2.0946080684661865e+00" cType="0" res="-9.9000000000000000e+01" rms="0.0000000000000000e+00" purity="6.1310911178588867e-01" nType="0">
              <Node pos="l" depth="2" NCoef="0" IVar="13" Cut="5.4403152465820312e+01" cType="0" res="-9.9000000000000000e+01" rms="0.0000000000000000e+00" purity="6.9949930906295776e-01" nType="0">
                <Node pos="l" depth="3" NCoef="0" IVar="-1" Cut="-6.1904764175415039e-01" cType="0" res="-9.9000000000000000e+01" rms="0.0000000000000000e+00" purity="8.4920835494995117e-01" nType="1"/>
                <Node pos="r" depth="3" NCoef="0" IVar="13" Cut="2.3655918121337891e+01" cType="0" res="-9.9000000000000000e+01" rms="0.0000000000000000e+00" purity="5.8094918727874756e-01" nType="0">
                  <Node pos="l" depth="4" NCoef="0" IVar="-1" Cut="3.1042617559432983e-01" cType="0" res="-9.9000000000000000e+01" rms="0.0000000000000000e+00" purity="6.8017995357513428e-01" nType="1"/>
                  <Node pos="r" depth="4" NCoef="0" IVar="-1" Cut="0.0000000000000000e+00" cType="1" res="-9.9000000000000000e+01" rms="0.0000000000000000e+00" purity="4.0390506386756897e-01" nType="-1"/>
                </Node>
              </Node>
              <Node pos="r" depth="2" NCoef="0" IVar="4" Cut="7.2764050960540771e-01" cType="0" res="-9.9000000000000000e+01" rms="0.0000000000000000e+00" purity="4.0077418088912964e-01" nType="0">
                <Node pos="l" depth="3" NCoef="0" IVar="-1" Cut="0.0000000000000000e+00" cType="1" res="-9.9000000000000000e+01" rms="0.0000000000000000e+00" purity="5.5748701095581055e-01" nType="1"/>
                <Node pos="r" depth="3" NCoef="0" IVar="-1" Cut="2.3406860828399658e+00" cType="1" res="-9.9000000000000000e+01" rms="0.0000000000000000e+00" purity="2.7229967713356018e-01" nType="-1"/>
              </Node>
            </Node>
            <Node pos="r" depth="1" NCoef="0" IVar="-1" Cut="-5.2380973100662231e-01" cType="0" res="-9.9000000000000000e+01" rms="0.0000000000000000e+00" purity="1.9073309004306793e-01" nType="-1"/>
          </Node>
        </BinaryTree>
        <BinaryTree type="DecisionTree" boostWeight="9.7727185840595476e-02" itree="4">
          <Node pos="s" depth="0" NCoef="0" IVar="6" Cut="4.7619048506021500e-02" cType="0" res="-9.9000000000000000e+01" rms="0.0000000000000000e+00" purity="4.9722716212272644e-01" nType="0">
            <Node pos="l" depth="1" NCoef="0" IVar="16" Cut="2.3935761451721191e+00" cType="0" res="-9.9000000000000000e+01" rms="0.0000000000000000e+00" purity="6.0218781232833862e-01" nType="0">
              <Node pos="l" depth="2" NCoef="0" IVar="8" Cut="-8.0952388048171997e-01" cType="0" res="-9.9000000000000000e+01" rms="0.0000000000000000e+00" purity="7.1073299646377563e-01" nType="0">
                <Node pos="l" depth="3" NCoef="0" IVar="-1" Cut="5.5240112543106079e-01" cType="0" res="-9.9000000000000000e+01" rms="0.0000000000000000e+00" purity="8.0147987604141235e-01" nType="1"/>
                <Node pos="r" depth="3" NCoef="0" IVar="11" Cut="2.7521760463714600e+00" cType="1" res="-9.9000000000000000e+01" rms="0.0000000000000000e+00" purity="5.3615522384643555e-01" nType="0">
                  <Node pos="l" depth="4" NCoef="0" IVar="-1" Cut="0.0000000000000000e+00" cType="1" res="-9.9000000000000000e+01" rms="0.0000000000000000e+00" purity="6.5928286314010620e-01" nType="1"/>
                  <Node pos="r" depth="4" NCoef="0" IVar="-1" Cut="0.0000000000000000e+00" cType="1" res="-9.9000000000000000e+01" rms="0.0000000000000000e+00" purity="4.2023742198944092e-01" nType="-1"/>
                </Node>
              </Node>
              <Node pos="r" depth="2" NCoef="0" IVar="7" Cut="4.7619048506021500e-02" cType="0" res="-9.9000000000000000e+01" rms="0.0000000000000000e+00" purity="4.2746850848197937e-01" nType="0">
                <Node pos="l" depth="3" NCoef="0" IVar="3" Cut="4.2559057474136353e-01" cType="0" res="-9.9000000000000000e+01" rms="0.0000000000000000e+00" purity="4.7498211264610291e-01" nType="0">
                  <Node pos="l" depth="4" NCoef="0" IVar="-1" Cut="0.0000000000000000e+00" cType="1" res="-9.9000000000000000e+01" rms="0.0000000000000000e+00" purity="6.6890734434127808e-01" nType="1"/>
                  <Node pos="r" depth="4" NCoef="0" IVar="-1" Cut="5.2865266799926758e-01" cType="0" res="-9.9000000000000000e+01" rms="0.0000000000000000e+00" purity="4.1674622893333435e-01" nType="-1"/>
                </Node>
                <Node pos="r" depth="3" NCoef="0" IVar="-1" Cut="0.0000000000000000e+00" cType="1" res="-9.9000000000000000e+01" rms="0.0000000000000000e+00" purity="2.2115240991115570e-01" nType="-1"/>
              </Node>
            </Node>
            <Node pos="r" depth="1" NCoef="0" IVar="-1" Cut="6.2986763000488281e+01" cType="0" res="-9.9000000000000000e+01" rms="0.0000000000000000e+00" purity="1.9531722366809845e-01" nType="-1"/>
          </Node>
        </BinaryTree>
        <BinaryTree type="DecisionTree" boostWeight="9.3426251930784548e-02" itree="5">
          <Node pos="s" depth="0" NCoef="0" IVar="16" Cut="2.8423674106597900e+00" cType="0" res="-9.9000000000000000e+01" rms="0.0000000000000000e+00" purity="5.0077259540557861e-01" nType="0">
            <Node pos="l" depth="1" NCoef="0" IVar="8" Cut="-4.2857202887535095e-01" cType="0" res="-9.9000000000000000e+01" rms="0.0000000000000000e+00" purity="7.1825718879699707e-01" nType="0">
              <Node pos="l" depth="2" NCoef="0" IVar="-1" Cut="3.0275928974151611e+00" cType="0" res="-9.9000000000000000e+01" rms="0.0000000000000000e+00" purity="9.3438035249710083e-01" nType="1"/>
              <Node pos="r" depth="2" NCoef="0" IVar="11" Cut="2.7078094482421875e+00" cType="1" res="-9.9000000000000000e+01" rms="0.0000000000000000e+00" purity="5.4287350177764893e-01" nType="0">
                <Node pos="l" depth="3" NCoef="0" IVar="-1" Cut="0.0000000000000000e+00" cType="1" res="-9.9000000000000000e+01" rms="0.0000000000000000e+00" purity="7.2659742832183838e-01" nType="1"/>
                <Node pos="r" depth="3" NCoef="0" IVar="-1" Cut="0.0000000000000000e+00" cType="1" res="-9.9000000000000000e+01" rms="0.0000000000000000e+00" purity="4.2066213488578796e-01" nType="-1"/>
              </Node>
            </Node>
            <Node pos="r" depth="1" NCoef="0" IVar="6" Cut="4.7619048506021500e-02" cType="0" res="-9.9000000000000000e+01" rms="0.0000000000000000e+00" purity="3.9067408442497253e-01" nType="0">
              <Node pos="l" depth="2" NCoef="0" IVar="7" Cut="4.7619048506021500e-02" cType="0" res="-9.9000000000000000e+01" rms="0.0000000000000000e+00" purity="4.7293418645858765e-01" nType="0">
                <Node pos="l" depth="3" NCoef="0" IVar="3" Cut="3.2578516006469727e-01" cType="0" res="-9.9000000000000000e+01" rms="0.0000000000000000e+00" purity="5.1700568199157715e-01" nType="0">
                  <Node pos="l" depth="4" NCoef="0" IVar="16" Cut="2.1657714843750000e+00" cType="0" res="-9.9000000000000000e+01" rms="0.0000000000000000e+00" purity="6.0469216108322144e-01" nType="0">
                    <Node pos="l" depth="5" NCoef="0" IVar="-1" Cut="0.0000000000000000e+00" cType="1" res="-9.9000000000000000e+01" rms="0.0000000000000000e+00" purity="7.5235801935195923e-01" nType="1"/>
                    <Node pos="r" depth="5" NCoef="0" IVar="-1" Cut="0.0000000000000000e+00" cType="1" res="-9.9000000000000000e+01" rms="0.0000000000000000e+00" purity="4.7671529650688171e-01" nType="-1"/>
                  </Node>
                  <Node pos="r" depth="4" NCoef="0" IVar="-1" Cut="5.2874535322189331e-01" cType="0" res="-9.9000000000000000e+01" rms="0.0000000000000000e+00" purity="4.0152278542518616e-01" nType="-1"/>
                </Node>
                <Node pos="r" depth="3" NCoef="0" IVar="-1" Cut="0.0000000000000000e+00" cType="1" res="-9.9000000000000000e+01" rms="0.0000000000000000e+00" purity="2.5176012516021729e-01" nType="-1"/>
              </Node>
              <Node pos="r" depth="2" NCoef="0" IVar="-1" Cut="5.9973995208740234e+01" cType="0" res="-9.9000000000000000e+01" rms="0.0000000000000000e+00" purity="1.6049987077713013e-01" nType="-1"/>
            </Node>
          </Node>
        </BinaryTree>
        <BinaryTree type="DecisionTree" boostWeight="9.5646258835069164e-02" itree="6">
          <Node pos="s" depth="0" NCoef="0" IVar="6" Cut="4.7619048506021500e-02" cType="0" res="-9.9000000000000000e+01" rms="0.0000000000000000e+00" purity="4.8539495468139648e-01" nType="0">
            <Node pos="l" depth="1" NCoef="0" IVar="16" Cut="2.5431780815124512e+00" cType="0" res="-9.9000000000000000e+01" rms="0.0000000000000000e+00" purity="5.7961773872375488e-01" nType="0">
              <Node pos="l" depth="2" NCoef="0" IVar="8" Cut="-2.3809593915939331e-01" cType="0" res="-9.9000000000000000e+01" rms="0.0000000000000000e+00" purity="7.1395158767700195e-01" nType="0">
                <Node pos="l" depth="3" NCoef="0" IVar="-1" Cut="9.7363489866256714e-01" cType="0" res="-9.9000000000000000e+01" rms="0.0000000000000000e+00" purity="8.8919222354888916e-01" nType="1"/>
                <Node pos="r" depth="3" NCoef="0" IVar="4" Cut="5.9521621465682983e-01" cType="0" res="-9.9000000000000000e+01" rms="0.0000000000000000e+00" purity="6.1304622888565063e-01" nType="0">
                  <Node pos="l" depth="4" NCoef="0" IVar="-1" Cut="5.9232228994369507e-01" cType="0" res="-9.9000000000000000e+01" rms="0.0000000000000000e+00" purity="7.0994228124618530e-01" nType="1"/>
                  <Node pos="r" depth="4" NCoef="0" IVar="-1" Cut="0.0000000000000000e+00" cType="1" res="-9.9000000000000000e+01" rms="0.0000000000000000e+00" purity="4.4866535067558289e-01" nType="-1"/>
                </Node>
              </Node>
              <Node pos="r" depth="2" NCoef="0" IVar="15" Cut="3.9475299835205078e+01" cType="0" res="-9.9000000000000000e+01" rms="0.0000000000000000e+00" purity="4.1805216670036316e-01" nType="0">
                <Node pos="l" depth="3" NCoef="0" IVar="21" Cut="1.3336828947067261e+00" cType="0" res="-9.9000000000000000e+01" rms="0.0000000000000000e+00" purity="5.0094497203826904e-01" nType="0">
                  <Node pos="l" depth="4" NCoef="0" IVar="2" Cut="5.7251507043838501e-01" cType="0" res="-9.9000000000000000e+01" rms="0.0000000000000000e+00" purity="5.7013237476348877e-01" nType="0">
                    <Node pos="l" depth="5" NCoef="0" IVar="-1" Cut="0.0000000000000000e+00" cType="1" res="-9.9000000000000000e+01" rms="0.0000000000000000e+00" purity="6.6866809129714966e-01" nType="1"/>
                    <Node pos="r" depth="5" NCoef="0" IVar="-1" Cut="0.0000000000000000e+00" cType="1" res="-9.9000000000000000e+01" rms="0.0000000000000000e+00" purity="4.7296130657196045e-01" nType="-1"/>
                  </Node>
                  <Node pos="r" depth="4" NCoef="0" IVar="-1" Cut="0.0000000000000000e+00" cType="1" res="-9.9000000000000000e+01" rms="0.0000000000000000e+00" purity="3.6268341541290283e-01" nType="-1"/>
                </Node>
                <Node pos="r" depth="3" NCoef="0" IVar="-1" Cut="-8.0952411890029907e-01" cType="0" res="-9.9000000000000000e+01" rms="0.0000000000000000e+00" purity="2.7034968137741089e-01" nType="-1"/>
              </Node>
            </Node>
            <Node pos="r" depth="1" NCoef="0" IVar="-1" Cut="5.5549606323242188e+01" cType="0" res="-9.9000000000000000e+01" rms="0.0000000000000000e+00" purity="2.1149890124797821e-01" nType="-1"/>
          </Node>
        </BinaryTree>
        <BinaryTree type="DecisionTree" boostWeight="8.5989353185983622e-02" itree="7">
          <Node pos="s" depth="0" NCoef="0" IVar="6" Cut="4.7619048506021500e-02" cType="0" res="-9.9000000000000000e+01" rms="0.0000000000000000e+00" purity="5.0858151912689209e-01" nType="0">
            <Node pos="l" depth="1" NCoef="0" IVar="16" Cut="2.8424026966094971e+00" cType="0" res="-9.9000000000000000e+01" rms="0.0000000000000000e+00" purity="6.0244584083557129e-01" nType="0">
              <Node pos="l" depth="2" NCoef="0" IVar="-1" Cut="-8.0952328443527222e-01" cType="0" res="-9.9000000000000000e+01" rms="0.0000000000000000e+00" purity="7.6223534345626831e-01" nType="1"/>
              <Node pos="r" depth="2" NCoef="0" IVar="7" Cut="4.7619048506021500e-02" cType="0" res="-9.9000000000000000e+01" rms="0.0000000000000000e+00" purity="5.0793200731277466e-01" nType="0">
                <Node pos="l" depth="3" NCoef="0" IVar="3" Cut="4.2182505130767822e-01" cType="0" res="-9.9000000000000000e+01" rms="0.0000000000000000e+00" purity="5.5190920829772949e-01" nType="0">
                  <Node pos="l" depth="4" NCoef="0" IVar="-1" Cut="0.0000000000000000e+00" cType="1" res="-9.9000000000000000e+01" rms="0.0000000000000000e+00" purity="7.1332514286041260e-01" nType="1"/>
                  <Node pos="r" depth="4" NCoef="0" IVar="17" Cut="-8.6063909530639648e-01" cType="0" res="-9.9000000000000000e+01" rms="0.0000000000000000e+00" purity="4.9857658147811890e-01" nType="0">
                    <Node pos="l" depth="5" NCoef="0" IVar="-1" Cut="0.0000000000000000e+00" cType="1" res="-9.9000000000000000e+01" rms="0.0000000000000000e+00" purity="5.5470198392868042e-01" nType="1"/>
                    <Node pos="r" depth="5" NCoef="0" IVar="-1" Cut="0.0000000000000000e+00" cType="1" res="-9.9000000000000000e+01" rms="0.0000000000000000e+00" purity="3.1150433421134949e-01" nType="-1"/>
                  </Node>
                </Node>
                <Node pos="r" depth="3" NCoef="0" IVar="-1" Cut="0.0000000000000000e+00" cType="1" res="-9.9000000000000000e+01" rms="0.0000000000000000e+00" purity="2.8821215033531189e-01" nType="-1"/>
              </Node>
            </Node>
            <Node pos="r" depth="1" NCoef="0" IVar="-1" Cut="6.4251238107681274e-01" cType="0" res="-9.9000000000000000e+01" rms="0.0000000000000000e+00" purity="2.3434782028198242e-01" nType="-1"/>
          </Node>
        </BinaryTree>
        <BinaryTree type="DecisionTree" boostWeight="9.1141869124344702e-02" itree="8">
          <Node pos="s" depth="0" NCoef="0" IVar="13" Cut="4.2940109252929688e+01" cType="0" res="-9.9000000000000000e+01" rms="0.0000000000000000e+00" purity="5.0212436914443970e-01" nType="0">
            <Node pos="l" depth="1" NCoef="0" IVar="16" Cut="2.8423674106597900e+00" cType="0" res="-9.9000000000000000e+01" rms="0.0000000000000000e+00" purity="6.5815967321395874e-01" nType="0">
              <Node pos="l" depth="2" NCoef="0" IVar="-1" Cut="3.2489308714866638e-01" cType="0" res="-9.9000000000000000e+01" rms="0.0000000000000000e+00" purity="8.2886153459548950e-01" nType="1"/>
              <Node pos="r" depth="2" NCoef="0" IVar="3" Cut="3.9741912484169006e-01" cType="0" res="-9.9000000000000000e+01" rms="0.0000000000000000e+00" purity="5.4325085878372192e-01" nType="0">
                <Node pos="l" depth="3" NCoef="0" IVar="-1" Cut="0.0000000000000000e+00" cType="1" res="-9.9000000000000000e+01" rms="0.0000000000000000e+00" purity="7.1016001701354980e-01" nType="1"/>
                <Node pos="r" depth="3" NCoef="0" IVar="2" Cut="6.1885136365890503e-01" cType="0" res="-9.9000000000000000e+01" rms="0.0000000000000000e+00" purity="4.6908894181251526e-01" nType="0">
                  <Node pos="l" depth="4" NCoef="0" IVar="3" Cut="2.8893753886222839e-01" cType="0" res="-9.9000000000000000e+01" rms="0.0000000000000000e+00" purity="5.8926975727081299e-01" nType="0">
                    <Node pos="l" depth="5" NCoef="0" IVar="-1" Cut="0.0000000000000000e+00" cType="1" res="-9.9000000000000000e+01" rms="0.0000000000000000e+00" purity="6.8508809804916382e-01" nType="1"/>
                    <Node pos="r" depth="5" NCoef="0" IVar="-1" Cut="0.0000000000000000e+00" cType="1" res="-9.9000000000000000e+01" rms="0.0000000000000000e+00" purity="4.8821818828582764e-01" nType="-1"/>
                  </Node>
                  <Node pos="r" depth="4" NCoef="0" IVar="-1" Cut="0.0000000000000000e+00" cType="1" res="-9.9000000000000000e+01" rms="0.0000000000000000e+00" purity="3.3806067705154419e-01" nType="-1"/>
                </Node>
              </Node>
            </Node>
            <Node pos="r" depth="1" NCoef="0" IVar="6" Cut="4.7619048506021500e-02" cType="0" res="-9.9000000000000000e+01" rms="0.0000000000000000e+00" purity="3.4918850660324097e-01" nType="0">
              <Node pos="l" depth="2" NCoef="0" IVar="3" Cut="3.3856433629989624e-01" cType="0" res="-9.9000000000000000e+01" rms="0.0000000000000000e+00" purity="4.3739223480224609e-01" nType="0">
                <Node pos="l" depth="3" NCoef="0" IVar="9" Cut="4.9148876190185547e+01" cType="0" res="-9.9000000000000000e+01" rms="0.0000000000000000e+00" purity="5.6712990999221802e-01" nType="0">
                  <Node pos="l" depth="4" NCoef="0" IVar="-1" Cut="0.0000000000000000e+00" cType="1" res="-9.9000000000000000e+01" rms="0.0000000000000000e+00" purity="6.6129505634307861e-01" nType="1"/>
                  <Node pos="r" depth="4" NCoef="0" IVar="-1" Cut="0.0000000000000000e+00" cType="1" res="-9.9000000000000000e+01" rms="0.0000000000000000e+00" purity="4.9193218350410461e-01" nType="-1"/>
                </Node>
                <Node pos="r" depth="3" NCoef="0" IVar="-1" Cut="1.4285714626312256e+00" cType="1" res="-9.9000000000000000e+01" rms="0.0000000000000000e+00" purity="3.0687928199768066e-01" nType="-1"/>
              </Node>
              <Node pos="r" depth="2" NCoef="0" IVar="-1" Cut="0.0000000000000000e+00" cType="1" res="-9.9000000000000000e+01" rms="0.0000000000000000e+00" purity="1.2961772084236145e-01" nType="-1"/>
            </Node>
          </Node>
        </BinaryTree>
        <BinaryTree type="DecisionTree" boostWeight="9.5463075227123731e-02" itree="9">
          <Node pos="s" depth="0" NCoef="0" IVar="2" Cut="6.3601332902908325e-01" cType="0" res="-9.9000000000000000e+01" rms="0.0000000000000000e+00" purity="5.0200480222702026e-01" nType="0">
            <Node pos="l" depth="1" NCoef="0" IVar="8" Cut="-2.3809523880481720e-01" cType="0" res="-9.9000000000000000e+01" rms="0.0000000000000000e+00" purity="6.6250193119049072e-01" nType="0">
              <Node pos="l" depth="2" NCoef="0" IVar="-1" Cut="1.3333448171615601e+00" cType="0" res="-9.9000000000000000e+01" rms="0.0000000000000000e+00" purity="8.5748219490051270e-01" nType="1"/>
              <Node pos="r" depth="2" NCoef="0" IVar="13" Cut="3.2034149169921875e+01" cType="0" res="-9.9000000000000000e+01" rms="0.0000000000000000e+00" purity="5.5150479078292847e-01" nType="0">
                <Node pos="l" depth="3" NCoef="0" IVar="18" Cut="6.1904764175415039e-01" cType="1" res="-9.9000000000000000e+01" rms="0.0000000000000000e+00" purity="6.6487687826156616e-01" nType="0">
                  <Node pos="l" depth="4" NCoef="0" IVar="-1" Cut="0.0000000000000000e+00" cType="1" res="-9.9000000000000000e+01" rms="0.0000000000000000e+00" purity="8.4131813049316406e-01" nType="1"/>
                  <Node pos="r" depth="4" NCoef="0" IVar="4" Cut="7.2676312923431396e-01" cType="0" res="-9.9000000000000000e+01" rms="0.0000000000000000e+00" purity="5.5865883827209473e-01" nType="0">
                    <Node pos="l" depth="5" NCoef="0" IVar="-1" Cut="0.0000000000000000e+00" cType="1" res="-9.9000000000000000e+01" rms="0.0000000000000000e+00" purity="6.7099553346633911e-01" nType="1"/>
                    <Node pos="r" depth="5" NCoef="0" IVar="-1" Cut="0.0000000000000000e+00" cType="1" res="-9.9000000000000000e+01" rms="0.0000000000000000e+00" purity="4.3760731816291809e-01" nType="-1"/>
                  </Node>
                </Node>
                <Node pos="r" depth="3" NCoef="0" IVar="-1" Cut="0.0000000000000000e+00" cType="1" res="-9.9000000000000000e+01" rms="0.0000000000000000e+00" purity="3.5544285178184509e-01" nType="-1"/>
              </Node>
            </Node>
            <Node pos="r" depth="1" NCoef="0" IVar="3" Cut="3.5139021277427673e-01" cType="0" res="-9.9000000000000000e+01" rms="0.0000000000000000e+00" purity="3.6475667357444763e-01" nType="0">
              <Node pos="l" depth="2" NCoef="0" IVar="15" Cut="3.6345691680908203e+01" cType="0" res="-9.9000000000000000e+01" rms="0.0000000000000000e+00" purity="4.9474251270294189e-01" nType="0">
                <Node pos="l" depth="3" NCoef="0" IVar="16" Cut="2.3926062583923340e+00" cType="0" res="-9.9000000000000000e+01" rms="0.0000000000000000e+00" purity="5.8662062883377075e-01" nType="0">
                  <Node pos="l" depth="4" NCoef="0" IVar="-1" Cut="0.0000000000000000e+00" cType="1" res="-9.9000000000000000e+01" rms="0.0000000000000000e+00" purity="7.2970080375671387e-01" nType="1"/>
                  <Node pos="r" depth="4" NCoef="0" IVar="-1" Cut="0.0000000000000000e+00" cType="1" res="-9.9000000000000000e+01" rms="0.0000000000000000e+00" purity="4.6246626973152161e-01" nType="-1"/>
                </Node>
                <Node pos="r" depth="3" NCoef="0" IVar="-1" Cut="0.0000000000000000e+00" cType="1" res="-9.9000000000000000e+01" rms="0.0000000000000000e+00" purity="3.2518136501312256e-01" nType="-1"/>
              </Node>
              <Node pos="r" depth="2" NCoef="0" IVar="-1" Cut="7.9209387302398682e-01" cType="0" res="-9.9000000000000000e+01" rms="0.0000000000000000e+00" purity="2.4264055490493774e-01" nType="-1"/>
            </Node>
          </Node>
        </BinaryTree>
        <BinaryTree type="DecisionTree" boostWeight="8.6844930088180158e-02" itree="10">
          <Node pos="s" depth="0" NCoef="0" IVar="6" Cut="4.7619048506021500e-02" cType="0" res="-9.9000000000000000e+01" rms="0.0000000000000000e+00" purity="4.9507459998130798e-01" nType="0">
            <Node pos="l" depth="1" NCoef="0" IVar="4" Cut="1.3128602504730225e-01" cType="0" res="-9.9000000000000000e+01" rms="0.0000000000000000e+00" purity="5.7324242591857910e-01" nType="0">
              <Node pos="l" depth="2" NCoef="0" IVar="7" Cut="4.7619048506021500e-02" cType="0" res="-9.9000000000000000e+01" rms="0.0000000000000000e+00" purity="6.2231731414794922e-01" nType="0">
                <Node pos="l" depth="3" NCoef="0" IVar="18" Cut="1.1428571939468384e+00" cType="1" res="-9.9000000000000000e+01" rms="0.0000000000000000e+00" purity="6.6837292909622192e-01" nType="0">
                  <Node pos="l" depth="4" NCoef="0" IVar="-1" Cut="6.2887728214263916e-01" cType="0" res="-9.9000000000000000e+01" rms="0.0000000000000000e+00" purity="7.3216813802719116e-01" nType="1"/>
                  <Node pos="r" depth="4" NCoef="0" IVar="3" Cut="3.1666538119316101e-01" cType="0" res="-9.9000000000000000e+01" rms="0.0000000000000000e+00" purity="4.8687770962715149e-01" nType="0">
                    <Node pos="l" depth="5" NCoef="0" IVar="-1" Cut="0.0000000000000000e+00" cType="1" res="-9.9000000000000000e+01" rms="0.0000000000000000e+00" purity="5.8618068695068359e-01" nType="1"/>
                    <Node pos="r" depth="5" NCoef="0" IVar="-1" Cut="0.0000000000000000e+00" cType="1" res="-9.9000000000000000e+01" rms="0.0000000000000000e+00" purity="3.5402226448059082e-01" nType="-1"/>
                  </Node>
                </Node>
                <Node pos="r" depth="3" NCoef="0" IVar="-1" Cut="0.0000000000000000e+00" cType="1" res="-9.9000000000000000e+01" rms="0.0000000000000000e+00" purity="3.5597097873687744e-01" nType="-1"/>
              </Node>
              <Node pos="r" depth="2" NCoef="0" IVar="-1" Cut="2.5432770252227783e+00" cType="0" res="-9.9000000000000000e+01" rms="0.0000000000000000e+00" purity="3.1333002448081970e-01" nType="-1"/>
            </Node>
            <Node pos="r" depth="1" NCoef="0" IVar="-1" Cut="4.7290309906005859e+01" cType="0" res="-9.9000000000000000e+01" rms="0.0000000000000000e+00" purity="2.5625637173652649e-01" nType="-1"/>
          </Node>
        </BinaryTree>
        <BinaryTree type="DecisionTree" boostWeight="8.1756097757066049e-02" itree="11">
          <Node pos="s" depth="0" NCoef="0" IVar="8" Cut="-5.2380955219268799e-01" cType="0" res="-9.9000000000000000e+01" rms="0.0000000000000000e+00" purity="5.2291697263717651e-01" nType="0">
            <Node pos="l" depth="1" NCoef="0" IVar="16" Cut="2.3935770988464355e+00" cType="0" res="-9.9000000000000000e+01" rms="0.0000000000000000e+00" purity="6.9265300035476685e-01" nType="0">
              <Node pos="l" depth="2" NCoef="0" IVar="-1" Cut="3.7054947018623352e-01" cType="0" res="-9.9000000000000000e+01" rms="0.0000000000000000e+00" purity="8.0462825298309326e-01" nType="1"/>
              <Node pos="r" depth="2" NCoef="0" IVar="-1" Cut="0.0000000000000000e+00" cType="1" res="-9.9000000000000000e+01" rms="0.0000000000000000e+00" purity="4.3630960583686829e-01" nType="-1"/>
            </Node>
            <Node pos="r" depth="1" NCoef="0" IVar="6" Cut="4.7619048506021500e-02" cType="0" res="-9.9000000000000000e+01" rms="0.0000000000000000e+00" purity="4.3367666006088257e-01" nType="0">
              <Node pos="l" depth="2" NCoef="0" IVar="20" Cut="1.4285710453987122e-01" cType="1" res="-9.9000000000000000e+01" rms="0.0000000000000000e+00" purity="5.0776672363281250e-01" nType="0">
                <Node pos="l" depth="3" NCoef="0" IVar="2" Cut="5.3574007749557495e-01" cType="0" res="-9.9000000000000000e+01" rms="0.0000000000000000e+00" purity="5.6152838468551636e-01" nType="0">
                  <Node pos="l" depth="4" NCoef="0" IVar="-1" Cut="7.9361599683761597e-01" cType="0" res="-9.9000000000000000e+01" rms="0.0000000000000000e+00" purity="6.3945174217224121e-01" nType="1"/>
                  <Node pos="r" depth="4" NCoef="0" IVar="-1" Cut="0.0000000000000000e+00" cType="1" res="-9.9000000000000000e+01" rms="0.0000000000000000e+00" purity="4.0535327792167664e-01" nType="-1"/>
                </Node>
                <Node pos="r" depth="3" NCoef="0" IVar="-1" Cut="3.4698328375816345e-01" cType="1" res="-9.9000000000000000e+01" rms="0.0000000000000000e+00" purity="3.3298811316490173e-01" nType="-1"/>
              </Node>
              <Node pos="r" depth="2" NCoef="0" IVar="-1" Cut="0.0000000000000000e+00" cType="1" res="-9.9000000000000000e+01" rms="0.0000000000000000e+00" purity="2.0395432412624359e-01" nType="-1"/>
            </Node>
          </Node>
        </BinaryTree>
        <BinaryTree type="DecisionTree" boostWeight="8.3083047530014470e-02" itree="12">
          <Node pos="s" depth="0" NCoef="0" IVar="6" Cut="4.7619048506021500e-02" cType="0" res="-9.9000000000000000e+01" rms="0.0000000000000000e+00" purity="5.2948862314224243e-01" nType="0">
            <Node pos="l" depth="1" NCoef="0" IVar="16" Cut="1.9447855949401855e+00" cType="0" res="-9.9000000000000000e+01" rms="0.0000000000000000e+00" purity="6.0121440887451172e-01" nType="0">
              <Node pos="l" depth="2" NCoef="0" IVar="3" Cut="3.6277315020561218e-01" cType="0" res="-9.9000000000000000e+01" rms="0.0000000000000000e+00" purity="6.6851580142974854e-01" nType="0">
                <Node pos="l" depth="3" NCoef="0" IVar="-1" Cut="5.4106098175048828e+01" cType="0" res="-9.9000000000000000e+01" rms="0.0000000000000000e+00" purity="8.2377308607101440e-01" nType="1"/>
                <Node pos="r" depth="3" NCoef="0" IVar="4" Cut="6.6073149442672729e-01" cType="0" res="-9.9000000000000000e+01" rms="0.0000000000000000e+00" purity="5.4320687055587769e-01" nType="0">
                  <Node pos="l" depth="4" NCoef="0" IVar="-1" Cut="5.0132965087890625e+01" cType="0" res="-9.9000000000000000e+01" rms="0.0000000000000000e+00" purity="6.3687103986740112e-01" nType="1"/>
                  <Node pos="r" depth="4" NCoef="0" IVar="15" Cut="5.3086708068847656e+01" cType="0" res="-9.9000000000000000e+01" rms="0.0000000000000000e+00" purity="4.0695658326148987e-01" nType="0">
                    <Node pos="l" depth="5" NCoef="0" IVar="-1" Cut="0.0000000000000000e+00" cType="1" res="-9.9000000000000000e+01" rms="0.0000000000000000e+00" purity="5.1620823144912720e-01" nType="1"/>
                    <Node pos="r" depth="5" NCoef="0" IVar="-1" Cut="0.0000000000000000e+00" cType="1" res="-9.9000000000000000e+01" rms="0.0000000000000000e+00" purity="3.2045084238052368e-01" nType="-1"/>
                  </Node>
                </Node>
              </Node>
              <Node pos="r" depth="2" NCoef="0" IVar="15" Cut="3.9472656250000000e+01" cType="0" res="-9.9000000000000000e+01" rms="0.0000000000000000e+00" purity="4.2037522792816162e-01" nType="0">
                <Node pos="l" depth="3" NCoef="0" IVar="21" Cut="1.7145853042602539e+00" cType="0" res="-9.9000000000000000e+01" rms="0.0000000000000000e+00" purity="4.9386897683143616e-01" nType="0">
                  <Node pos="l" depth="4" NCoef="0" IVar="-1" Cut="0.0000000000000000e+00" cType="1" res="-9.9000000000000000e+01" rms="0.0000000000000000e+00" purity="5.7313197851181030e-01" nType="1"/>
                  <Node pos="r" depth="4" NCoef="0" IVar="-1" Cut="0.0000000000000000e+00" cType="1" res="-9.9000000000000000e+01" rms="0.0000000000000000e+00" purity="3.7355667352676392e-01" nType="-1"/>
                </Node>
                <Node pos="r" depth="3" NCoef="0" IVar="-1" Cut="0.0000000000000000e+00" cType="1" res="-9.9000000000000000e+01" rms="0.0000000000000000e+00" purity="2.6670658588409424e-01" nType="-1"/>
              </Node>
            </Node>
            <Node pos="r" depth="1" NCoef="0" IVar="-1" Cut="4.7759365081787109e+01" cType="0" res="-9.9000000000000000e+01" rms="0.0000000000000000e+00" purity="2.9353436827659607e-01" nType="-1"/>
          </Node>
        </BinaryTree>
        <BinaryTree type="DecisionTree" boostWeight="8.5650214478189823e-02" itree="13">
          <Node pos="s" depth="0" NCoef="0" IVar="2" Cut="6.8824708461761475e-01" cType="0" res="-9.9000000000000000e+01" rms="0.0000000000000000e+00" purity="5.1068603992462158e-01" nType="0">
            <Node pos="l" depth="1" NCoef="0" IVar="13" Cut="5.7900836944580078e+01" cType="0" res="-9.9000000000000000e+01" rms="0.0000000000000000e+00" purity="7.0032447576522827e-01" nType="0">
              <Node pos="l" depth="2" NCoef="0" IVar="-1" Cut="3.6979529261589050e-01" cType="0" res="-9.9000000000000000e+01" rms="0.0000000000000000e+00" purity="8.4758800268173218e-01" nType="1"/>
              <Node pos="r" depth="2" NCoef="0" IVar="16" Cut="2.5433990955352783e+00" cType="0" res="-9.9000000000000000e+01" rms="0.0000000000000000e+00" purity="5.7130330801010132e-01" nType="0">
                <Node pos="l" depth="3" NCoef="0" IVar="-1" Cut="3.0683618545532227e+01" cType="0" res="-9.9000000000000000e+01" rms="0.0000000000000000e+00" purity="6.6641300916671753e-01" nType="1"/>
                <Node pos="r" depth="3" NCoef="0" IVar="-1" Cut="0.0000000000000000e+00" cType="1" res="-9.9000000000000000e+01" rms="0.0000000000000000e+00" purity="4.2760688066482544e-01" nType="-1"/>
              </Node>
            </Node>
            <Node pos="r" depth="1" NCoef="0" IVar="6" Cut="4.7619048506021500e-02" cType="0" res="-9.9000000000000000e+01" rms="0.0000000000000000e+00" purity="3.9896267652511597e-01" nType="0">
              <Node pos="l" depth="2" NCoef="0" IVar="2" Cut="4.7814556956291199e-01" cType="0" res="-9.9000000000000000e+01" rms="0.0000000000000000e+00" purity="4.7719082236289978e-01" nType="0">
                <Node pos="l" depth="3" NCoef="0" IVar="19" Cut="4.6206672668457031e+01" cType="1" res="-9.9000000000000000e+01" rms="0.0000000000000000e+00" purity="5.5388456583023071e-01" nType="0">
                  <Node pos="l" depth="4" NCoef="0" IVar="3" Cut="3.7544149160385132e-01" cType="0" res="-9.9000000000000000e+01" rms="0.0000000000000000e+00" purity="6.0591703653335571e-01" nType="0">
                    <Node pos="l" depth="5" NCoef="0" IVar="-1" Cut="0.0000000000000000e+00" cType="1" res="-9.9000000000000000e+01" rms="0.0000000000000000e+00" purity="7.0825928449630737e-01" nType="1"/>
                    <Node pos="r" depth="5" NCoef="0" IVar="-1" Cut="0.0000000000000000e+00" cType="1" res="-9.9000000000000000e+01" rms="0.0000000000000000e+00" purity="4.8425218462944031e-01" nType="-1"/>
                  </Node>
                  <Node pos="r" depth="4" NCoef="0" IVar="-1" Cut="0.0000000000000000e+00" cType="1" res="-9.9000000000000000e+01" rms="0.0000000000000000e+00" purity="4.0594440698623657e-01" nType="-1"/>
                </Node>
                <Node pos="r" depth="3" NCoef="0" IVar="-1" Cut="4.1146379709243774e-01" cType="0" res="-9.9000000000000000e+01" rms="0.0000000000000000e+00" purity="3.0358502268791199e-01" nType="-1"/>
              </Node>
              <Node pos="r" depth="2" NCoef="0" IVar="-1" Cut="0.0000000000000000e+00" cType="1" res="-9.9000000000000000e+01" rms="0.0000000000000000e+00" purity="1.9649006426334381e-01" nType="-1"/>
            </Node>
          </Node>
        </BinaryTree>
        <BinaryTree type="DecisionTree" boostWeight="8.5379603137820489e-02" itree="14">
          <Node pos="s" depth="0" NCoef="0" IVar="6" Cut="4.7619048506021500e-02" cType="0" res="-9.9000000000000000e+01" rms="0.0000000000000000e+00" purity="5.0530105829238892e-01" nType="0">
            <Node pos="l" depth="1" NCoef="0" IVar="20" Cut="5.7142853736877441e-01" cType="1" res="-9.9000000000000000e+01" rms="0.0000000000000000e+00" purity="5.8350729942321777e-01" nType="0">
              <Node pos="l" depth="2" NCoef="0" IVar="13" Cut="4.1058551788330078e+01" cType="0" res="-9.9000000000000000e+01" rms="0.0000000000000000e+00" purity="6.1339610815048218e-01" nType="0">
                <Node pos="l" depth="3" NCoef="0" IVar="-1" Cut="2.5436089038848877e+00" cType="0" res="-9.9000000000000000e+01" rms="0.0000000000000000e+00" purity="7.1461772918701172e-01" nType="1"/>
                <Node pos="r" depth="3" NCoef="0" IVar="2" Cut="5.4304462671279907e-01" cType="0" res="-9.9000000000000000e+01" rms="0.0000000000000000e+00" purity="4.8699325323104858e-01" nType="0">
                  <Node pos="l" depth="4" NCoef="0" IVar="18" Cut="1.2857142686843872e+00" cType="1" res="-9.9000000000000000e+01" rms="0.0000000000000000e+00" purity="5.9118461608886719e-01" nType="0">
                    <Node pos="l" depth="5" NCoef="0" IVar="-1" Cut="0.0000000000000000e+00" cType="1" res="-9.9000000000000000e+01" rms="0.0000000000000000e+00" purity="6.4434158802032471e-01" nType="1"/>
                    <Node pos="r" depth="5" NCoef="0" IVar="-1" Cut="0.0000000000000000e+00" cType="1" res="-9.9000000000000000e+01" rms="0.0000000000000000e+00" purity="4.4761329889297485e-01" nType="-1"/>
                  </Node>
                  <Node pos="r" depth="4" NCoef="0" IVar="-1" Cut="0.0000000000000000e+00" cType="1" res="-9.9000000000000000e+01" rms="0.0000000000000000e+00" purity="3.2480660080909729e-01" nType="-1"/>
                </Node>
              </Node>
              <Node pos="r" depth="2" NCoef="0" IVar="-1" Cut="0.0000000000000000e+00" cType="1" res="-9.9000000000000000e+01" rms="0.0000000000000000e+00" purity="1.7767566442489624e-01" nType="-1"/>
            </Node>
            <Node pos="r" depth="1" NCoef="0" IVar="-1" Cut="3.3896929025650024e-01" cType="0" res="-9.9000000000000000e+01" rms="0.0000000000000000e+00" purity="2.6926586031913757e-01" nType="-1"/>
          </Node>
        </BinaryTree>
        <BinaryTree type="DecisionTree" boostWeight="8.5253965825248884e-02" itree="15">
          <Node pos="s" depth="0" NCoef="0" IVar="13" Cut="5.7839225769042969e+01" cType="0" res="-9.9000000000000000e+01" rms="0.0000000000000000e+00" purity="5.3004848957061768e-01" nType="0">
            <Node pos="l" depth="1" NCoef="0" IVar="2" Cut="6.1539614200592041e-01" cType="0" res="-9.9000000000000000e+01" rms="0.0000000000000000e+00" purity="7.0651680231094360e-01" nType="0">
              <Node pos="l" depth="2" NCoef="0" IVar="-1" Cut="5.9041522979736328e+01" cType="1" res="-9.9000000000000000e+01" rms="0.0000000000000000e+00" purity="8.0082619190216064e-01" nType="1"/>
              <Node pos="r" depth="2" NCoef="0" IVar="3" Cut="3.4136891365051270e-01" cType="0" res="-9.9000000000000000e+01" rms="0.0000000000000000e+00" purity="5.2894634008407593e-01" nType="0">
                <Node pos="l" depth="3" NCoef="0" IVar="-1" Cut="0.0000000000000000e+00" cType="1" res="-9.9000000000000000e+01" rms="0.0000000000000000e+00" purity="6.1814838647842407e-01" nType="1"/>
                <Node pos="r" depth="3" NCoef="0" IVar="-1" Cut="0.0000000000000000e+00" cType="1" res="-9.9000000000000000e+01" rms="0.0000000000000000e+00" purity="4.1613814234733582e-01" nType="-1"/>
              </Node>
            </Node>
            <Node pos="r" depth="1" NCoef="0" IVar="6" Cut="4.7619048506021500e-02" cType="0" res="-9.9000000000000000e+01" rms="0.0000000000000000e+00" purity="4.4083330035209656e-01" nType="0">
              <Node pos="l" depth="2" NCoef="0" IVar="7" Cut="4.7619048506021500e-02" cType="0" res="-9.9000000000000000e+01" rms="0.0000000000000000e+00" purity="5.2212160825729370e-01" nType="0">
                <Node pos="l" depth="3" NCoef="0" IVar="19" Cut="4.5004230499267578e+01" cType="1" res="-9.9000000000000000e+01" rms="0.0000000000000000e+00" purity="5.6985551118850708e-01" nType="0">
                  <Node pos="l" depth="4" NCoef="0" IVar="9" Cut="3.3360988616943359e+01" cType="0" res="-9.9000000000000000e+01" rms="0.0000000000000000e+00" purity="6.3342189788818359e-01" nType="0">
                    <Node pos="l" depth="5" NCoef="0" IVar="-1" Cut="0.0000000000000000e+00" cType="1" res="-9.9000000000000000e+01" rms="0.0000000000000000e+00" purity="7.2688025236129761e-01" nType="1"/>
                    <Node pos="r" depth="5" NCoef="0" IVar="-1" Cut="0.0000000000000000e+00" cType="1" res="-9.9000000000000000e+01" rms="0.0000000000000000e+00" purity="4.6279808878898621e-01" nType="-1"/>
                  </Node>
                  <Node pos="r" depth="4" NCoef="0" IVar="19" Cut="8.8818946838378906e+01" cType="1" res="-9.9000000000000000e+01" rms="0.0000000000000000e+00" purity="4.2906519770622253e-01" nType="0">
                    <Node pos="l" depth="5" NCoef="0" IVar="-1" Cut="0.0000000000000000e+00" cType="1" res="-9.9000000000000000e+01" rms="0.0000000000000000e+00" purity="5.0959295034408569e-01" nType="1"/>
                    <Node pos="r" depth="5" NCoef="0" IVar="-1" Cut="0.0000000000000000e+00" cType="1" res="-9.9000000000000000e+01" rms="0.0000000000000000e+00" purity="3.2497596740722656e-01" nType="-1"/>
                  </Node>
                </Node>
                <Node pos="r" depth="3" NCoef="0" IVar="-1" Cut="0.0000000000000000e+00" cType="1" res="-9.9000000000000000e+01" rms="0.0000000000000000e+00" purity="2.8176370263099670e-01" nType="-1"/>
              </Node>
              <Node pos="r" depth="2" NCoef="0" IVar="-1" Cut="0.0000000000000000e+00" cType="1" res="-9.9000000000000000e+01" rms="0.0000000000000000e+00" purity="2.1344099938869476e-01" nType="-1"/>
            </Node>
          </Node>
        </BinaryTree>
        <BinaryTree type="DecisionTree" boostWeight="8.1418358953546821e-02" itree="16">
          <Node pos="s" depth="0" NCoef="0" IVar="3" Cut="3.6259594559669495e-01" cType="0" res="-9.9000000000000000e+01" rms="0.0000000000000000e+00" purity="5.1432460546493530e-01" nType="0">
            <Node pos="l" depth="1" NCoef="0" IVar="2" Cut="6.6624975204467773e-01" cType="0" res="-9.9000000000000000e+01" rms="0.0000000000000000e+00" purity="6.5155178308486938e-01" nType="0">
              <Node pos="l" depth="2" NCoef="0" IVar="-1" Cut="5.4324913024902344e+01" cType="0" res="-9.9000000000000000e+01" rms="0.0000000000000000e+00" purity="8.1119674444198608e-01" nType="1"/>
              <Node pos="r" depth="2" NCoef="0" IVar="15" Cut="6.8037071228027344e+01" cType="0" res="-9.9000000000000000e+01" rms="0.0000000000000000e+00" purity="5.4782384634017944e-01" nType="0">
                <Node pos="l" depth="3" NCoef="0" IVar="-1" Cut="0.0000000000000000e+00" cType="1" res="-9.9000000000000000e+01" rms="0.0000000000000000e+00" purity="7.1890830993652344e-01" nType="1"/>
                <Node pos="r" depth="3" NCoef="0" IVar="9" Cut="3.1590757369995117e+01" cType="0" res="-9.9000000000000000e+01" rms="0.0000000000000000e+00" purity="4.6604111790657043e-01" nType="0">
                  <Node pos="l" depth="4" NCoef="0" IVar="-1" Cut="0.0000000000000000e+00" cType="1" res="-9.9000000000000000e+01" rms="0.0000000000000000e+00" purity="5.7633233070373535e-01" nType="1"/>
                  <Node pos="r" depth="4" NCoef="0" IVar="-1" Cut="0.0000000000000000e+00" cType="1" res="-9.9000000000000000e+01" rms="0.0000000000000000e+00" purity="3.6045417189598083e-01" nType="-1"/>
                </Node>
              </Node>
            </Node>
            <Node pos="r" depth="1" NCoef="0" IVar="6" Cut="4.7619048506021500e-02" cType="0" res="-9.9000000000000000e+01" rms="0.0000000000000000e+00" purity="4.1149699687957764e-01" nType="0">
              <Node pos="l" depth="2" NCoef="0" IVar="19" Cut="5.2391864776611328e+01" cType="1" res="-9.9000000000000000e+01" rms="0.0000000000000000e+00" purity="4.7334724664688110e-01" nType="0">
                <Node pos="l" depth="3" NCoef="0" IVar="13" Cut="4.2379535675048828e+01" cType="0" res="-9.9000000000000000e+01" rms="0.0000000000000000e+00" purity="5.5489522218704224e-01" nType="0">
                  <Node pos="l" depth="4" NCoef="0" IVar="-1" Cut="2.6927738189697266e+00" cType="0" res="-9.9000000000000000e+01" rms="0.0000000000000000e+00" purity="6.7996668815612793e-01" nType="1"/>
                  <Node pos="r" depth="4" NCoef="0" IVar="-1" Cut="0.0000000000000000e+00" cType="1" res="-9.9000000000000000e+01" rms="0.0000000000000000e+00" purity="4.2770212888717651e-01" nType="-1"/>
                </Node>
                <Node pos="r" depth="3" NCoef="0" IVar="-1" Cut="1.4285701513290405e-01" cType="1" res="-9.9000000000000000e+01" rms="0.0000000000000000e+00" purity="3.0283436179161072e-01" nType="-1"/>
              </Node>
              <Node pos="r" depth="2" NCoef="0" IVar="-1" Cut="0.0000000000000000e+00" cType="1" res="-9.9000000000000000e+01" rms="0.0000000000000000e+00" purity="2.2863596677780151e-01" nType="-1"/>
            </Node>
          </Node>
        </BinaryTree>
        <BinaryTree type="DecisionTree" boostWeight="8.3582580258081685e-02" itree="17">
          <Node pos="s" depth="0" NCoef="0" IVar="13" Cut="5.4324913024902344e+01" cType="0" res="-9.9000000000000000e+01" rms="0.0000000000000000e+00" purity="5.0617754459381104e-01" nType="0">
            <Node pos="l" depth="1" NCoef="0" IVar="20" Cut="2.8571423888206482e-01" cType="1" res="-9.9000000000000000e+01" rms="0.0000000000000000e+00" purity="6.7060279846191406e-01" nType="0">
              <Node pos="l" depth="2" NCoef="0" IVar="-1" Cut="-2.3809520900249481e-01" cType="0" res="-9.9000000000000000e+01" rms="0.0000000000000000e+00" purity="7.3477321863174438e-01" nType="1"/>
              <Node pos="r" depth="2" NCoef="0" IVar="-1" Cut="0.0000000000000000e+00" cType="1" res="-9.9000000000000000e+01" rms="0.0000000000000000e+00" purity="3.2470792531967163e-01" nType="-1"/>
            </Node>
            <Node pos="r" depth="1" NCoef="0" IVar="6" Cut="4.7619048506021500e-02" cType="0" res="-9.9000000000000000e+01" rms="0.0000000000000000e+00" purity="4.0694797039031982e-01" nType="0">
              <Node pos="l" depth="2" NCoef="0" IVar="4" Cut="1.3083666563034058e-01" cType="0" res="-9.9000000000000000e+01" rms="0.0000000000000000e+00" purity="4.8639366030693054e-01" nType="0">
                <Node pos="l" depth="3" NCoef="0" IVar="16" Cut="2.0944945812225342e+00" cType="0" res="-9.9000000000000000e+01" rms="0.0000000000000000e+00" purity="5.3236991167068481e-01" nType="0">
                  <Node pos="l" depth="4" NCoef="0" IVar="8" Cut="-9.0476191043853760e-01" cType="0" res="-9.9000000000000000e+01" rms="0.0000000000000000e+00" purity="6.0412853956222534e-01" nType="0">
                    <Node pos="l" depth="5" NCoef="0" IVar="-1" Cut="0.0000000000000000e+00" cType="1" res="-9.9000000000000000e+01" rms="0.0000000000000000e+00" purity="6.7219281196594238e-01" nType="1"/>
                    <Node pos="r" depth="5" NCoef="0" IVar="-1" Cut="0.0000000000000000e+00" cType="1" res="-9.9000000000000000e+01" rms="0.0000000000000000e+00" purity="4.8094198107719421e-01" nType="-1"/>
                  </Node>
                  <Node pos="r" depth="4" NCoef="0" IVar="-1" Cut="4.2420310974121094e+01" cType="0" res="-9.9000000000000000e+01" rms="0.0000000000000000e+00" purity="3.9634478092193604e-01" nType="-1"/>
                </Node>
                <Node pos="r" depth="3" NCoef="0" IVar="-1" Cut="0.0000000000000000e+00" cType="1" res="-9.9000000000000000e+01" rms="0.0000000000000000e+00" purity="2.7130016684532166e-01" nType="-1"/>
              </Node>
              <Node pos="r" depth="2" NCoef="0" IVar="-1" Cut="0.0000000000000000e+00" cType="1" res="-9.9000000000000000e+01" rms="0.0000000000000000e+00" purity="1.8874597549438477e-01" nType="-1"/>
            </Node>
          </Node>
        </BinaryTree>
        <BinaryTree type="DecisionTree" boostWeight="7.6827300996746548e-02" itree="18">
          <Node pos="s" depth="0" NCoef="0" IVar="8" Cut="-3.3333346247673035e-01" cType="0" res="-9.9000000000000000e+01" rms="0.0000000000000000e+00" purity="5.1068329811096191e-01" nType="0">
            <Node pos="l" depth="1" NCoef="0" IVar="16" Cut="2.2441639900207520e+00" cType="0" res="-9.9000000000000000e+01" rms="0.0000000000000000e+00" purity="6.9590878486633301e-01" nType="0">
              <Node pos="l" depth="2" NCoef="0" IVar="-1" Cut="3.6781522631645203e-01" cType="0" res="-9.9000000000000000e+01" rms="0.0000000000000000e+00" purity="7.9526776075363159e-01" nType="1"/>
              <Node pos="r" depth="2" NCoef="0" IVar="-1" Cut="0.0000000000000000e+00" cType="1" res="-9.9000000000000000e+01" rms="0.0000000000000000e+00" purity="4.1221976280212402e-01" nType="-1"/>
            </Node>
            <Node pos="r" depth="1" NCoef="0" IVar="6" Cut="4.7619048506021500e-02" cType="0" res="-9.9000000000000000e+01" rms="0.0000000000000000e+00" purity="4.3980970978736877e-01" nType="0">
              <Node pos="l" depth="2" NCoef="0" IVar="2" Cut="4.7583398222923279e-01" cType="0" res="-9.9000000000000000e+01" rms="0.0000000000000000e+00" purity="5.0338357686996460e-01" nType="0">
                <Node pos="l" depth="3" NCoef="0" IVar="19" Cut="6.3024124145507812e+01" cType="1" res="-9.9000000000000000e+01" rms="0.0000000000000000e+00" purity="5.5188506841659546e-01" nType="0">
                  <Node pos="l" depth="4" NCoef="0" IVar="15" Cut="5.3074527740478516e+01" cType="0" res="-9.9000000000000000e+01" rms="0.0000000000000000e+00" purity="6.0114896297454834e-01" nType="0">
                    <Node pos="l" depth="5" NCoef="0" IVar="-1" Cut="0.0000000000000000e+00" cType="1" res="-9.9000000000000000e+01" rms="0.0000000000000000e+00" purity="7.0291531085968018e-01" nType="1"/>
                    <Node pos="r" depth="5" NCoef="0" IVar="-1" Cut="0.0000000000000000e+00" cType="1" res="-9.9000000000000000e+01" rms="0.0000000000000000e+00" purity="4.9091970920562744e-01" nType="-1"/>
                  </Node>
                  <Node pos="r" depth="4" NCoef="0" IVar="-1" Cut="0.0000000000000000e+00" cType="1" res="-9.9000000000000000e+01" rms="0.0000000000000000e+00" purity="3.6767983436584473e-01" nType="-1"/>
                </Node>
                <Node pos="r" depth="3" NCoef="0" IVar="-1" Cut="0.0000000000000000e+00" cType="1" res="-9.9000000000000000e+01" rms="0.0000000000000000e+00" purity="3.0281382799148560e-01" nType="-1"/>
              </Node>
              <Node pos="r" depth="2" NCoef="0" IVar="-1" Cut="2.5516297817230225e+00" cType="1" res="-9.9000000000000000e+01" rms="0.0000000000000000e+00" purity="2.4834793806076050e-01" nType="-1"/>
            </Node>
          </Node>
        </BinaryTree>
        <BinaryTree type="DecisionTree" boostWeight="6.4606358043935580e-02" itree="19">
          <Node pos="s" depth="0" NCoef="0" IVar="3" Cut="4.8915216326713562e-01" cType="0" res="-9.9000000000000000e+01" rms="0.0000000000000000e+00" purity="5.0948721170425415e-01" nType="0">
            <Node pos="l" depth="1" NCoef="0" IVar="-1" Cut="5.8411132812500000e+01" cType="0" res="-9.9000000000000000e+01" rms="0.0000000000000000e+00" purity="8.2170790433883667e-01" nType="1"/>
            <Node pos="r" depth="1" NCoef="0" IVar="6" Cut="4.7619048506021500e-02" cType="0" res="-9.9000000000000000e+01" rms="0.0000000000000000e+00" purity="4.6903109550476074e-01" nType="0">
              <Node pos="l" depth="2" NCoef="0" IVar="13" Cut="3.0373653411865234e+01" cType="0" res="-9.9000000000000000e+01" rms="0.0000000000000000e+00" purity="5.2308458089828491e-01" nType="0">
                <Node pos="l" depth="3" NCoef="0" IVar="16" Cut="2.5432944297790527e+00" cType="0" res="-9.9000000000000000e+01" rms="0.0000000000000000e+00" purity="5.8092164993286133e-01" nType="0">
                  <Node pos="l" depth="4" NCoef="0" IVar="8" Cut="-9.0476167201995850e-01" cType="0" res="-9.9000000000000000e+01" rms="0.0000000000000000e+00" purity="6.8259948492050171e-01" nType="0">
                    <Node pos="l" depth="5" NCoef="0" IVar="-1" Cut="0.0000000000000000e+00" cType="1" res="-9.9000000000000000e+01" rms="0.0000000000000000e+00" purity="7.6358407735824585e-01" nType="1"/>
                    <Node pos="r" depth="5" NCoef="0" IVar="-1" Cut="0.0000000000000000e+00" cType="1" res="-9.9000000000000000e+01" rms="0.0000000000000000e+00" purity="4.9652457237243652e-01" nType="-1"/>
                  </Node>
                  <Node pos="r" depth="4" NCoef="0" IVar="19" Cut="9.7359878540039062e+01" cType="1" res="-9.9000000000000000e+01" rms="0.0000000000000000e+00" purity="4.7924199700355530e-01" nType="0">
                    <Node pos="l" depth="5" NCoef="0" IVar="-1" Cut="0.0000000000000000e+00" cType="1" res="-9.9000000000000000e+01" rms="0.0000000000000000e+00" purity="5.2510273456573486e-01" nType="1"/>
                    <Node pos="r" depth="5" NCoef="0" IVar="-1" Cut="0.0000000000000000e+00" cType="1" res="-9.9000000000000000e+01" rms="0.0000000000000000e+00" purity="3.4987011551856995e-01" nType="-1"/>
                  </Node>
                </Node>
                <Node pos="r" depth="3" NCoef="0" IVar="-1" Cut="7.9410785436630249e-01" cType="0" res="-9.9000000000000000e+01" rms="0.0000000000000000e+00" purity="4.0445345640182495e-01" nType="-1"/>
              </Node>
              <Node pos="r" depth="2" NCoef="0" IVar="-1" Cut="4.4912540435791016e+01" cType="0" res="-9.9000000000000000e+01" rms="0.0000000000000000e+00" purity="2.9507952928543091e-01" nType="-1"/>
            </Node>
          </Node>
        </BinaryTree>
        <BinaryTree type="DecisionTree" boostWeight="7.7972436708680426e-02" itree="20">
          <Node pos="s" depth="0" NCoef="0" IVar="13" Cut="5.7950428009033203e+01" cType="0" res="-9.9000000000000000e+01" rms="0.0000000000000000e+00" purity="5.1205915212631226e-01" nType="0">
            <Node pos="l" depth="1" NCoef="0" IVar="20" Cut="2.8571420907974243e-01" cType="1" res="-9.9000000000000000e+01" rms="0.0000000000000000e+00" purity="6.7506897449493408e-01" nType="0">
              <Node pos="l" depth="2" NCoef="0" IVar="-1" Cut="3.3037793636322021e-01" cType="0" res="-9.9000000000000000e+01" rms="0.0000000000000000e+00" purity="7.3654127120971680e-01" nType="1"/>
              <Node pos="r" depth="2" NCoef="0" IVar="-1" Cut="0.0000000000000000e+00" cType="1" res="-9.9000000000000000e+01" rms="0.0000000000000000e+00" purity="3.4976464509963989e-01" nType="-1"/>
            </Node>
            <Node pos="r" depth="1" NCoef="0" IVar="6" Cut="4.7619048506021500e-02" cType="0" res="-9.9000000000000000e+01" rms="0.0000000000000000e+00" purity="4.3449640274047852e-01" nType="0">
              <Node pos="l" depth="2" NCoef="0" IVar="7" Cut="4.7619048506021500e-02" cType="0" res="-9.9000000000000000e+01" rms="0.0000000000000000e+00" purity="4.9717885255813599e-01" nType="0">
                <Node pos="l" depth="3" NCoef="0" IVar="4" Cut="7.9558765888214111e-01" cType="0" res="-9.9000000000000000e+01" rms="0.0000000000000000e+00" purity="5.5402010679244995e-01" nType="0">
                  <Node pos="l" depth="4" NCoef="0" IVar="-1" Cut="3.0768015980720520e-01" cType="0" res="-9.9000000000000000e+01" rms="0.0000000000000000e+00" purity="6.6213184595108032e-01" nType="1"/>
                  <Node pos="r" depth="4" NCoef="0" IVar="0" Cut="-3.6316102743148804e-01" cType="0" res="-9.9000000000000000e+01" rms="0.0000000000000000e+00" purity="4.6008810400962830e-01" nType="0">
                    <Node pos="l" depth="5" NCoef="0" IVar="-1" Cut="0.0000000000000000e+00" cType="1" res="-9.9000000000000000e+01" rms="0.0000000000000000e+00" purity="5.2925574779510498e-01" nType="1"/>
                    <Node pos="r" depth="5" NCoef="0" IVar="-1" Cut="0.0000000000000000e+00" cType="1" res="-9.9000000000000000e+01" rms="0.0000000000000000e+00" purity="3.7311837077140808e-01" nType="-1"/>
                  </Node>
                </Node>
                <Node pos="r" depth="3" NCoef="0" IVar="-1" Cut="0.0000000000000000e+00" cType="1" res="-9.9000000000000000e+01" rms="0.0000000000000000e+00" purity="2.3650096356868744e-01" nType="-1"/>
              </Node>
              <Node pos="r" depth="2" NCoef="0" IVar="-1" Cut="0.0000000000000000e+00" cType="1" res="-9.9000000000000000e+01" rms="0.0000000000000000e+00" purity="2.5451490283012390e-01" nType="-1"/>
            </Node>
          </Node>
        </BinaryTree>
        <BinaryTree type="DecisionTree" boostWeight="6.4961903741856050e-02" itree="21">
          <Node pos="s" depth="0" NCoef="0" IVar="8" Cut="-4.7619048506021500e-02" cType="0" res="-9.9000000000000000e+01" rms="0.0000000000000000e+00" purity="5.2175617218017578e-01" nType="0">
            <Node pos="l" depth="1" NCoef="0" IVar="-1" Cut="1.7143543958663940e+00" cType="0" res="-9.9000000000000000e+01" rms="0.0000000000000000e+00" purity="7.2524100542068481e-01" nType="1"/>
            <Node pos="r" depth="1" NCoef="0" IVar="6" Cut="4.7619048506021500e-02" cType="0" res="-9.9000000000000000e+01" rms="0.0000000000000000e+00" purity="4.7130930423736572e-01" nType="0">
              <Node pos="l" depth="2" NCoef="0" IVar="7" Cut="4.7619048506021500e-02" cType="0" res="-9.9000000000000000e+01" rms="0.0000000000000000e+00" purity="5.1887261867523193e-01" nType="0">
                <Node pos="l" depth="3" NCoef="0" IVar="19" Cut="6.3024124145507812e+01" cType="1" res="-9.9000000000000000e+01" rms="0.0000000000000000e+00" purity="5.5908393859863281e-01" nType="0">
                  <Node pos="l" depth="4" NCoef="0" IVar="-1" Cut="5.8246344327926636e-01" cType="0" res="-9.9000000000000000e+01" rms="0.0000000000000000e+00" purity="6.0830426216125488e-01" nType="1"/>
                  <Node pos="r" depth="4" NCoef="0" IVar="-1" Cut="1.4953124523162842e+00" cType="0" res="-9.9000000000000000e+01" rms="0.0000000000000000e+00" purity="3.8675794005393982e-01" nType="-1"/>
                </Node>
                <Node pos="r" depth="3" NCoef="0" IVar="-1" Cut="0.0000000000000000e+00" cType="1" res="-9.9000000000000000e+01" rms="0.0000000000000000e+00" purity="3.0815392732620239e-01" nType="-1"/>
              </Node>
              <Node pos="r" depth="2" NCoef="0" IVar="13" Cut="4.7694301605224609e+01" cType="0" res="-9.9000000000000000e+01" rms="0.0000000000000000e+00" purity="3.0257087945938110e-01" nType="0">
                <Node pos="l" depth="3" NCoef="0" IVar="-1" Cut="0.0000000000000000e+00" cType="1" res="-9.9000000000000000e+01" rms="0.0000000000000000e+00" purity="5.0635391473770142e-01" nType="1"/>
                <Node pos="r" depth="3" NCoef="0" IVar="-1" Cut="0.0000000000000000e+00" cType="1" res="-9.9000000000000000e+01" rms="0.0000000000000000e+00" purity="2.0199124515056610e-01" nType="-1"/>
              </Node>
            </Node>
          </Node>
        </BinaryTree>
        <BinaryTree type="DecisionTree" boostWeight="6.7876850472139580e-02" itree="22">
          <Node pos="s" depth="0" NCoef="0" IVar="8" Cut="-1.4285714924335480e-01" cType="0" res="-9.9000000000000000e+01" rms="0.0000000000000000e+00" purity="5.0614470243453979e-01" nType="0">
            <Node pos="l" depth="1" NCoef="0" IVar="-1" Cut="6.9209849834442139e-01" cType="0" res="-9.9000000000000000e+01" rms="0.0000000000000000e+00" purity="7.0836973190307617e-01" nType="1"/>
            <Node pos="r" depth="1" NCoef="0" IVar="6" Cut="4.7619048506021500e-02" cType="0" res="-9.9000000000000000e+01" rms="0.0000000000000000e+00" purity="4.4914859533309937e-01" nType="0">
              <Node pos="l" depth="2" NCoef="0" IVar="20" Cut="4.2857137322425842e-01" cType="1" res="-9.9000000000000000e+01" rms="0.0000000000000000e+00" purity="5.0859737396240234e-01" nType="0">
                <Node pos="l" depth="3" NCoef="0" IVar="19" Cut="6.8510742187500000e+01" cType="1" res="-9.9000000000000000e+01" rms="0.0000000000000000e+00" purity="5.3818386793136597e-01" nType="0">
                  <Node pos="l" depth="4" NCoef="0" IVar="13" Cut="2.3813314437866211e+01" cType="0" res="-9.9000000000000000e+01" rms="0.0000000000000000e+00" purity="5.7647824287414551e-01" nType="0">
                    <Node pos="l" depth="5" NCoef="0" IVar="-1" Cut="0.0000000000000000e+00" cType="1" res="-9.9000000000000000e+01" rms="0.0000000000000000e+00" purity="6.1915123462677002e-01" nType="1"/>
                    <Node pos="r" depth="5" NCoef="0" IVar="-1" Cut="0.0000000000000000e+00" cType="1" res="-9.9000000000000000e+01" rms="0.0000000000000000e+00" purity="4.4582903385162354e-01" nType="-1"/>
                  </Node>
                  <Node pos="r" depth="4" NCoef="0" IVar="-1" Cut="0.0000000000000000e+00" cType="1" res="-9.9000000000000000e+01" rms="0.0000000000000000e+00" purity="3.6838456988334656e-01" nType="-1"/>
                </Node>
                <Node pos="r" depth="3" NCoef="0" IVar="-1" Cut="0.0000000000000000e+00" cType="1" res="-9.9000000000000000e+01" rms="0.0000000000000000e+00" purity="2.3211601376533508e-01" nType="-1"/>
              </Node>
              <Node pos="r" depth="2" NCoef="0" IVar="-1" Cut="4.7242343902587891e+01" cType="0" res="-9.9000000000000000e+01" rms="0.0000000000000000e+00" purity="2.6602655649185181e-01" nType="-1"/>
            </Node>
          </Node>
        </BinaryTree>
        <BinaryTree type="DecisionTree" boostWeight="7.2898686688073033e-02" itree="23">
          <Node pos="s" depth="0" NCoef="0" IVar="2" Cut="6.9209849834442139e-01" cType="0" res="-9.9000000000000000e+01" rms="0.0000000000000000e+00" purity="5.0698012113571167e-01" nType="0">
            <Node pos="l" depth="1" NCoef="0" IVar="3" Cut="3.1447479128837585e-01" cType="0" res="-9.9000000000000000e+01" rms="0.0000000000000000e+00" purity="6.3379490375518799e-01" nType="0">
              <Node pos="l" depth="2" NCoef="0" IVar="-1" Cut="2.8424825668334961e+00" cType="0" res="-9.9000000000000000e+01" rms="0.0000000000000000e+00" purity="7.6339316368103027e-01" nType="1"/>
              <Node pos="r" depth="2" NCoef="0" IVar="19" Cut="5.2391864776611328e+01" cType="1" res="-9.9000000000000000e+01" rms="0.0000000000000000e+00" purity="4.9618580937385559e-01" nType="0">
                <Node pos="l" depth="3" NCoef="0" IVar="8" Cut="-8.0952399969100952e-01" cType="0" res="-9.9000000000000000e+01" rms="0.0000000000000000e+00" purity="5.6973457336425781e-01" nType="0">
                  <Node pos="l" depth="4" NCoef="0" IVar="-1" Cut="0.0000000000000000e+00" cType="1" res="-9.9000000000000000e+01" rms="0.0000000000000000e+00" purity="7.1886879205703735e-01" nType="1"/>
                  <Node pos="r" depth="4" NCoef="0" IVar="-1" Cut="0.0000000000000000e+00" cType="1" res="-9.9000000000000000e+01" rms="0.0000000000000000e+00" purity="4.6175050735473633e-01" nType="-1"/>
                </Node>
                <Node pos="r" depth="3" NCoef="0" IVar="-1" Cut="0.0000000000000000e+00" cType="1" res="-9.9000000000000000e+01" rms="0.0000000000000000e+00" purity="3.5704559087753296e-01" nType="-1"/>
              </Node>
            </Node>
            <Node pos="r" depth="1" NCoef="0" IVar="3" Cut="2.9218116402626038e-01" cType="0" res="-9.9000000000000000e+01" rms="0.0000000000000000e+00" purity="4.2545932531356812e-01" nType="0">
              <Node pos="l" depth="2" NCoef="0" IVar="7" Cut="4.7619048506021500e-02" cType="0" res="-9.9000000000000000e+01" rms="0.0000000000000000e+00" purity="4.9661660194396973e-01" nType="0">
                <Node pos="l" depth="3" NCoef="0" IVar="15" Cut="3.7362991333007812e+01" cType="0" res="-9.9000000000000000e+01" rms="0.0000000000000000e+00" purity="5.4353773593902588e-01" nType="0">
                  <Node pos="l" depth="4" NCoef="0" IVar="19" Cut="3.7211189270019531e+01" cType="1" res="-9.9000000000000000e+01" rms="0.0000000000000000e+00" purity="6.0603308677673340e-01" nType="0">
                    <Node pos="l" depth="5" NCoef="0" IVar="-1" Cut="0.0000000000000000e+00" cType="1" res="-9.9000000000000000e+01" rms="0.0000000000000000e+00" purity="6.7115038633346558e-01" nType="1"/>
                    <Node pos="r" depth="5" NCoef="0" IVar="-1" Cut="0.0000000000000000e+00" cType="1" res="-9.9000000000000000e+01" rms="0.0000000000000000e+00" purity="4.8047575354576111e-01" nType="-1"/>
                  </Node>
                  <Node pos="r" depth="4" NCoef="0" IVar="-1" Cut="0.0000000000000000e+00" cType="1" res="-9.9000000000000000e+01" rms="0.0000000000000000e+00" purity="4.1141030192375183e-01" nType="-1"/>
                </Node>
                <Node pos="r" depth="3" NCoef="0" IVar="-1" Cut="0.0000000000000000e+00" cType="1" res="-9.9000000000000000e+01" rms="0.0000000000000000e+00" purity="2.7762088179588318e-01" nType="-1"/>
              </Node>
              <Node pos="r" depth="2" NCoef="0" IVar="-1" Cut="5.2520501613616943e-01" cType="0" res="-9.9000000000000000e+01" rms="0.0000000000000000e+00" purity="2.7036923170089722e-01" nType="-1"/>
            </Node>
          </Node>
        </BinaryTree>
        <BinaryTree type="DecisionTree" boostWeight="6.9598822045736683e-02" itree="24">
          <Node pos="s" depth="0" NCoef="0" IVar="16" Cut="2.8424291610717773e+00" cType="0" res="-9.9000000000000000e+01" rms="0.0000000000000000e+00" purity="4.9781316518783569e-01" nType="0">
            <Node pos="l" depth="1" NCoef="0" IVar="8" Cut="-4.2857134342193604e-01" cType="0" res="-9.9000000000000000e+01" rms="0.0000000000000000e+00" purity="6.4119523763656616e-01" nType="0">
              <Node pos="l" depth="2" NCoef="0" IVar="-1" Cut="3.7319144606590271e-01" cType="0" res="-9.9000000000000000e+01" rms="0.0000000000000000e+00" purity="7.9515105485916138e-01" nType="1"/>
              <Node pos="r" depth="2" NCoef="0" IVar="11" Cut="2.6090824604034424e+00" cType="1" res="-9.9000000000000000e+01" rms="0.0000000000000000e+00" purity="5.1244246959686279e-01" nType="0">
                <Node pos="l" depth="3" NCoef="0" IVar="-1" Cut="0.0000000000000000e+00" cType="1" res="-9.9000000000000000e+01" rms="0.0000000000000000e+00" purity="6.5426564216613770e-01" nType="1"/>
                <Node pos="r" depth="3" NCoef="0" IVar="-1" Cut="0.0000000000000000e+00" cType="1" res="-9.9000000000000000e+01" rms="0.0000000000000000e+00" purity="4.3259748816490173e-01" nType="-1"/>
              </Node>
            </Node>
            <Node pos="r" depth="1" NCoef="0" IVar="6" Cut="4.7619048506021500e-02" cType="0" res="-9.9000000000000000e+01" rms="0.0000000000000000e+00" purity="4.2889419198036194e-01" nType="0">
              <Node pos="l" depth="2" NCoef="0" IVar="4" Cut="1.3146166503429413e-01" cType="0" res="-9.9000000000000000e+01" rms="0.0000000000000000e+00" purity="4.8914277553558350e-01" nType="0">
                <Node pos="l" depth="3" NCoef="0" IVar="3" Cut="2.3961575329303741e-01" cType="0" res="-9.9000000000000000e+01" rms="0.0000000000000000e+00" purity="5.2681058645248413e-01" nType="0">
                  <Node pos="l" depth="4" NCoef="0" IVar="7" Cut="4.7619048506021500e-02" cType="0" res="-9.9000000000000000e+01" rms="0.0000000000000000e+00" purity="5.6064242124557495e-01" nType="0">
                    <Node pos="l" depth="5" NCoef="0" IVar="-1" Cut="0.0000000000000000e+00" cType="1" res="-9.9000000000000000e+01" rms="0.0000000000000000e+00" purity="5.9386342763900757e-01" nType="1"/>
                    <Node pos="r" depth="5" NCoef="0" IVar="-1" Cut="0.0000000000000000e+00" cType="1" res="-9.9000000000000000e+01" rms="0.0000000000000000e+00" purity="3.7238559126853943e-01" nType="-1"/>
                  </Node>
                  <Node pos="r" depth="4" NCoef="0" IVar="-1" Cut="0.0000000000000000e+00" cType="1" res="-9.9000000000000000e+01" rms="0.0000000000000000e+00" purity="3.1556129455566406e-01" nType="-1"/>
                </Node>
                <Node pos="r" depth="3" NCoef="0" IVar="-1" Cut="0.0000000000000000e+00" cType="1" res="-9.9000000000000000e+01" rms="0.0000000000000000e+00" purity="2.9731065034866333e-01" nType="-1"/>
              </Node>
              <Node pos="r" depth="2" NCoef="0" IVar="-1" Cut="3.6917778015136719e+01" cType="0" res="-9.9000000000000000e+01" rms="0.0000000000000000e+00" purity="2.4867162108421326e-01" nType="-1"/>
            </Node>
          </Node>
        </BinaryTree>
        <BinaryTree type="DecisionTree" boostWeight="6.4136787884577870e-02" itree="25">
          <Node pos="s" depth="0" NCoef="0" IVar="2" Cut="6.3601332902908325e-01" cType="0" res="-9.9000000000000000e+01" rms="0.0000000000000000e+00" purity="4.9608919024467468e-01" nType="0">
            <Node pos="l" depth="1" NCoef="0" IVar="3" Cut="3.6628308892250061e-01" cType="0" res="-9.9000000000000000e+01" rms="0.0000000000000000e+00" purity="5.9633463621139526e-01" nType="0">
              <Node pos="l" depth="2" NCoef="0" IVar="-1" Cut="2.6929225921630859e+00" cType="0" res="-9.9000000000000000e+01" rms="0.0000000000000000e+00" purity="7.4731642007827759e-01" nType="1"/>
              <Node pos="r" depth="2" NCoef="0" IVar="4" Cut="5.2920937538146973e-01" cType="0" res="-9.9000000000000000e+01" rms="0.0000000000000000e+00" purity="5.0600993633270264e-01" nType="0">
                <Node pos="l" depth="3" NCoef="0" IVar="13" Cut="6.1739570617675781e+01" cType="0" res="-9.9000000000000000e+01" rms="0.0000000000000000e+00" purity="5.7333463430404663e-01" nType="0">
                  <Node pos="l" depth="4" NCoef="0" IVar="-1" Cut="0.0000000000000000e+00" cType="1" res="-9.9000000000000000e+01" rms="0.0000000000000000e+00" purity="7.0806264877319336e-01" nType="1"/>
                  <Node pos="r" depth="4" NCoef="0" IVar="11" Cut="2.8629631996154785e+00" cType="1" res="-9.9000000000000000e+01" rms="0.0000000000000000e+00" purity="5.0229966640472412e-01" nType="0">
                    <Node pos="l" depth="5" NCoef="0" IVar="-1" Cut="0.0000000000000000e+00" cType="1" res="-9.9000000000000000e+01" rms="0.0000000000000000e+00" purity="5.8427917957305908e-01" nType="1"/>
                    <Node pos="r" depth="5" NCoef="0" IVar="-1" Cut="0.0000000000000000e+00" cType="1" res="-9.9000000000000000e+01" rms="0.0000000000000000e+00" purity="4.2221748828887939e-01" nType="-1"/>
                  </Node>
                </Node>
                <Node pos="r" depth="3" NCoef="0" IVar="-1" Cut="1.3113348186016083e-01" cType="0" res="-9.9000000000000000e+01" rms="0.0000000000000000e+00" purity="3.8091310858726501e-01" nType="-1"/>
              </Node>
            </Node>
            <Node pos="r" depth="1" NCoef="0" IVar="4" Cut="7.9424017667770386e-01" cType="0" res="-9.9000000000000000e+01" rms="0.0000000000000000e+00" purity="4.0484687685966492e-01" nType="0">
              <Node pos="l" depth="2" NCoef="0" IVar="11" Cut="2.8317034244537354e+00" cType="1" res="-9.9000000000000000e+01" rms="0.0000000000000000e+00" purity="5.1279777288436890e-01" nType="0">
                <Node pos="l" depth="3" NCoef="0" IVar="-1" Cut="1.3690523681640625e+03" cType="1" res="-9.9000000000000000e+01" rms="0.0000000000000000e+00" purity="5.9763461351394653e-01" nType="1"/>
                <Node pos="r" depth="3" NCoef="0" IVar="-1" Cut="0.0000000000000000e+00" cType="1" res="-9.9000000000000000e+01" rms="0.0000000000000000e+00" purity="3.8031986355781555e-01" nType="-1"/>
              </Node>
              <Node pos="r" depth="2" NCoef="0" IVar="-1" Cut="4.1597953438758850e-01" cType="0" res="-9.9000000000000000e+01" rms="0.0000000000000000e+00" purity="3.3483916521072388e-01" nType="-1"/>
            </Node>
          </Node>
        </BinaryTree>
        <BinaryTree type="DecisionTree" boostWeight="6.8694010134054198e-02" itree="26">
          <Node pos="s" depth="0" NCoef="0" IVar="3" Cut="4.1358363628387451e-01" cType="0" res="-9.9000000000000000e+01" rms="0.0000000000000000e+00" purity="5.0343000888824463e-01" nType="0">
            <Node pos="l" depth="1" NCoef="0" IVar="16" Cut="1.9451463222503662e+00" cType="0" res="-9.9000000000000000e+01" rms="0.0000000000000000e+00" purity="6.8724465370178223e-01" nType="0">
              <Node pos="l" depth="2" NCoef="0" IVar="-1" Cut="5.7951324462890625e+01" cType="0" res="-9.9000000000000000e+01" rms="0.0000000000000000e+00" purity="7.7508199214935303e-01" nType="1"/>
              <Node pos="r" depth="2" NCoef="0" IVar="-1" Cut="0.0000000000000000e+00" cType="1" res="-9.9000000000000000e+01" rms="0.0000000000000000e+00" purity="4.4482290744781494e-01" nType="-1"/>
            </Node>
            <Node pos="r" depth="1" NCoef="0" IVar="2" Cut="6.3601332902908325e-01" cType="0" res="-9.9000000000000000e+01" rms="0.0000000000000000e+00" purity="4.4124031066894531e-01" nType="0">
              <Node pos="l" depth="2" NCoef="0" IVar="16" Cut="1.7951498031616211e+00" cType="0" res="-9.9000000000000000e+01" rms="0.0000000000000000e+00" purity="5.5181109905242920e-01" nType="0">
                <Node pos="l" depth="3" NCoef="0" IVar="19" Cut="4.7258403778076172e+01" cType="1" res="-9.9000000000000000e+01" rms="0.0000000000000000e+00" purity="5.9867143630981445e-01" nType="0">
                  <Node pos="l" depth="4" NCoef="0" IVar="-1" Cut="4.4280193328857422e+01" cType="0" res="-9.9000000000000000e+01" rms="0.0000000000000000e+00" purity="6.5063512325286865e-01" nType="1"/>
                  <Node pos="r" depth="4" NCoef="0" IVar="-1" Cut="0.0000000000000000e+00" cType="1" res="-9.9000000000000000e+01" rms="0.0000000000000000e+00" purity="4.5082280039787292e-01" nType="-1"/>
                </Node>
                <Node pos="r" depth="3" NCoef="0" IVar="-1" Cut="0.0000000000000000e+00" cType="1" res="-9.9000000000000000e+01" rms="0.0000000000000000e+00" purity="3.6923944950103760e-01" nType="-1"/>
              </Node>
              <Node pos="r" depth="2" NCoef="0" IVar="5" Cut="8.7163704633712769e-01" cType="0" res="-9.9000000000000000e+01" rms="0.0000000000000000e+00" purity="3.3690455555915833e-01" nType="0">
                <Node pos="l" depth="3" NCoef="0" IVar="18" Cut="1.4285714626312256e+00" cType="1" res="-9.9000000000000000e+01" rms="0.0000000000000000e+00" purity="3.9657157659530640e-01" nType="0">
                  <Node pos="l" depth="4" NCoef="0" IVar="2" Cut="5.1685327291488647e-01" cType="0" res="-9.9000000000000000e+01" rms="0.0000000000000000e+00" purity="4.4920796155929565e-01" nType="0">
                    <Node pos="l" depth="5" NCoef="0" IVar="-1" Cut="0.0000000000000000e+00" cType="1" res="-9.9000000000000000e+01" rms="0.0000000000000000e+00" purity="5.1408421993255615e-01" nType="1"/>
                    <Node pos="r" depth="5" NCoef="0" IVar="-1" Cut="0.0000000000000000e+00" cType="1" res="-9.9000000000000000e+01" rms="0.0000000000000000e+00" purity="4.0005925297737122e-01" nType="-1"/>
                  </Node>
                  <Node pos="r" depth="4" NCoef="0" IVar="-1" Cut="0.0000000000000000e+00" cType="1" res="-9.9000000000000000e+01" rms="0.0000000000000000e+00" purity="2.6869148015975952e-01" nType="-1"/>
                </Node>
                <Node pos="r" depth="3" NCoef="0" IVar="-1" Cut="0.0000000000000000e+00" cType="1" res="-9.9000000000000000e+01" rms="0.0000000000000000e+00" purity="2.0530137419700623e-01" nType="-1"/>
              </Node>
            </Node>
          </Node>
        </BinaryTree>
        <BinaryTree type="DecisionTree" boostWeight="6.3663420558704262e-02" itree="27">
          <Node pos="s" depth="0" NCoef="0" IVar="3" Cut="3.6496374011039734e-01" cType="0" res="-9.9000000000000000e+01" rms="0.0000000000000000e+00" purity="5.1908689737319946e-01" nType="0">
            <Node pos="l" depth="1" NCoef="0" IVar="8" Cut="-5.2380949258804321e-01" cType="0" res="-9.9000000000000000e+01" rms="0.0000000000000000e+00" purity="6.3188564777374268e-01" nType="0">
              <Node pos="l" depth="2" NCoef="0" IVar="-1" Cut="2.8424825668334961e+00" cType="0" res="-9.9000000000000000e+01" rms="0.0000000000000000e+00" purity="7.8236931562423706e-01" nType="1"/>
              <Node pos="r" depth="2" NCoef="0" IVar="15" Cut="5.5328838348388672e+01" cType="0" res="-9.9000000000000000e+01" rms="0.0000000000000000e+00" purity="5.2243030071258545e-01" nType="0">
                <Node pos="l" depth="3" NCoef="0" IVar="14" Cut="1.5127471923828125e+03" cType="1" res="-9.9000000000000000e+01" rms="0.0000000000000000e+00" purity="5.8395081758499146e-01" nType="0">
                  <Node pos="l" depth="4" NCoef="0" IVar="-1" Cut="0.0000000000000000e+00" cType="1" res="-9.9000000000000000e+01" rms="0.0000000000000000e+00" purity="7.1126389503479004e-01" nType="1"/>
                  <Node pos="r" depth="4" NCoef="0" IVar="-1" Cut="0.0000000000000000e+00" cType="1" res="-9.9000000000000000e+01" rms="0.0000000000000000e+00" purity="4.7692382335662842e-01" nType="-1"/>
                </Node>
                <Node pos="r" depth="3" NCoef="0" IVar="-1" Cut="0.0000000000000000e+00" cType="1" res="-9.9000000000000000e+01" rms="0.0000000000000000e+00" purity="4.6369656920433044e-01" nType="-1"/>
              </Node>
            </Node>
            <Node pos="r" depth="1" NCoef="0" IVar="4" Cut="5.2908247709274292e-01" cType="0" res="-9.9000000000000000e+01" rms="0.0000000000000000e+00" purity="4.3317928910255432e-01" nType="0">
              <Node pos="l" depth="2" NCoef="0" IVar="13" Cut="6.4283462524414062e+01" cType="0" res="-9.9000000000000000e+01" rms="0.0000000000000000e+00" purity="5.1092374324798584e-01" nType="0">
                <Node pos="l" depth="3" NCoef="0" IVar="-1" Cut="0.0000000000000000e+00" cType="1" res="-9.9000000000000000e+01" rms="0.0000000000000000e+00" purity="6.6937941312789917e-01" nType="1"/>
                <Node pos="r" depth="3" NCoef="0" IVar="15" Cut="4.2033191680908203e+01" cType="0" res="-9.9000000000000000e+01" rms="0.0000000000000000e+00" purity="4.5121338963508606e-01" nType="0">
                  <Node pos="l" depth="4" NCoef="0" IVar="19" Cut="3.6605045318603516e+01" cType="1" res="-9.9000000000000000e+01" rms="0.0000000000000000e+00" purity="5.1874029636383057e-01" nType="0">
                    <Node pos="l" depth="5" NCoef="0" IVar="-1" Cut="0.0000000000000000e+00" cType="1" res="-9.9000000000000000e+01" rms="0.0000000000000000e+00" purity="5.9656518697738647e-01" nType="1"/>
                    <Node pos="r" depth="5" NCoef="0" IVar="-1" Cut="0.0000000000000000e+00" cType="1" res="-9.9000000000000000e+01" rms="0.0000000000000000e+00" purity="4.1112890839576721e-01" nType="-1"/>
                  </Node>
                  <Node pos="r" depth="4" NCoef="0" IVar="-1" Cut="0.0000000000000000e+00" cType="1" res="-9.9000000000000000e+01" rms="0.0000000000000000e+00" purity="3.6629819869995117e-01" nType="-1"/>
                </Node>
              </Node>
              <Node pos="r" depth="2" NCoef="0" IVar="-1" Cut="6.6988044977188110e-01" cType="0" res="-9.9000000000000000e+01" rms="0.0000000000000000e+00" purity="3.1866699457168579e-01" nType="-1"/>
            </Node>
          </Node>
        </BinaryTree>
        <BinaryTree type="DecisionTree" boostWeight="6.5872767402312279e-02" itree="28">
          <Node pos="s" depth="0" NCoef="0" IVar="2" Cut="6.8824708461761475e-01" cType="0" res="-9.9000000000000000e+01" rms="0.0000000000000000e+00" purity="5.0382316112518311e-01" nType="0">
            <Node pos="l" depth="1" NCoef="0" IVar="16" Cut="2.5433080196380615e+00" cType="0" res="-9.9000000000000000e+01" rms="0.0000000000000000e+00" purity="6.3103193044662476e-01" nType="0">
              <Node pos="l" depth="2" NCoef="0" IVar="-1" Cut="-2.3809674382209778e-01" cType="0" res="-9.9000000000000000e+01" rms="0.0000000000000000e+00" purity="7.1004444360733032e-01" nType="1"/>
              <Node pos="r" depth="2" NCoef="0" IVar="13" Cut="3.7394580841064453e+01" cType="0" res="-9.9000000000000000e+01" rms="0.0000000000000000e+00" purity="4.9248164892196655e-01" nType="0">
                <Node pos="l" depth="3" NCoef="0" IVar="-1" Cut="0.0000000000000000e+00" cType="1" res="-9.9000000000000000e+01" rms="0.0000000000000000e+00" purity="5.7309848070144653e-01" nType="1"/>
                <Node pos="r" depth="3" NCoef="0" IVar="-1" Cut="0.0000000000000000e+00" cType="1" res="-9.9000000000000000e+01" rms="0.0000000000000000e+00" purity="3.7625911831855774e-01" nType="-1"/>
              </Node>
            </Node>
            <Node pos="r" depth="1" NCoef="0" IVar="3" Cut="3.4283837676048279e-01" cType="0" res="-9.9000000000000000e+01" rms="0.0000000000000000e+00" purity="4.2161026597023010e-01" nType="0">
              <Node pos="l" depth="2" NCoef="0" IVar="15" Cut="7.2669242858886719e+01" cType="0" res="-9.9000000000000000e+01" rms="0.0000000000000000e+00" purity="5.0663739442825317e-01" nType="0">
                <Node pos="l" depth="3" NCoef="0" IVar="-1" Cut="0.0000000000000000e+00" cType="1" res="-9.9000000000000000e+01" rms="0.0000000000000000e+00" purity="6.4428776502609253e-01" nType="1"/>
